{"learner":{"attributes":{"scikit_learn":"{\"_estimator_type\": \"classifier\"}"},"feature_names":["have_quote","sent_len","sent_pos"],"feature_types":["i","float","float"],"gradient_booster":{"model":{"gbtree_model_param":{"num_parallel_tree":"1","num_trees":"100"},"iteration_indptr":[0,1,2,3,4,5,6,7,8,9,10,11,12,13,14,15,16,17,18,19,20,21,22,23,24,25,26,27,28,29,30,31,32,33,34,35,36,37,38,39,40,41,42,43,44,45,46,47,48,49,50,51,52,53,54,55,56,57,58,59,60,61,62,63,64,65,66,67,68,69,70,71,72,73,74,75,76,77,78,79,80,81,82,83,84,85,86,87,88,89,90,91,92,93,94,95,96,97,98,99,100],"tree_info":[0,0,0,0,0,0,0,0,0,0,0,0,0,0,0,0,0,0,0,0,0,0,0,0,0,0,0,0,0,0,0,0,0,0,0,0,0,0,0,0,0,0,0,0,0,0,0,0,0,0,0,0,0,0,0,0,0,0,0,0,0,0,0,0,0,0,0,0,0,0,0,0,0,0,0,0,0,0,0,0,0,0,0,0,0,0,0,0,0,0,0,0,0,0,0,0,0,0,0,0],"trees":[{"base_weights":[-6.8054534E-3,4.066972E-1,-5.656632E-1,5.491762E-1,-5.4717296E-1,1.1998616E-1,-1E0,8.887528E-1,3.4030432E-1,-4.3449187E-1,-1E0,3.1023282E-1,-6.223069E-1,-5.8208674E-1,-1E0,3.412564E-1,9.901326E-1,5.3550124E-1,-2.9161817E-1,9.592547E-2,-5.616034E-1,-1.2965241E-1,-1E0,5.0840986E-1,-4.0268117E-1,-3.3643427E-1,-1E0,-1.0211413E-1,-1E0,-8.1138575E-1,-5E-2,1.4504844E-2,3.622029E-2,5E-2,2.8005728E-2,1.3486559E-2,2.9356172E-2,-6.6992366E-3,-3.289294E-2,2.8178552E-2,-4.58583E-4,7.463995E-3,-3.33035E-2,-4.8802327E-2,2.8318865E-2,-3.905678E-2,-5E-2,2.9899245E-2,1.7812947E-2,2.7867986E-2,-5E-2,-6.370425E-3,-5E-2,-1.4164823E-2,-5E-2,5.5005713E-3,-5E-2,-3.9517097E-2,-5E-2,-8.649886E-3,-5E-2],"categories":[],"categories_nodes":[],"categories_segments":[],"categories_sizes":[],"default_left":[0,0,0,0,0,0,0,0,0,0,0,0,0,0,0,0,0,0,0,0,0,0,0,0,0,0,0,0,0,0,0,0,0,0,0,0,0,0,0,0,0,0,0,0,0,0,0,0,0,0,0,0,0,0,0,0,0,0,0,0,0],"id":0,"left_children":[1,3,5,7,9,11,13,15,17,19,21,23,25,27,29,31,33,35,37,39,41,43,45,47,49,51,53,55,57,59,-1,-1,-1,-1,-1,-1,-1,-1,-1,-1,-1,-1,-1,-1,-1,-1,-1,-1,-1,-1,-1,-1,-1,-1,-1,-1,-1,-1,-1,-1,-1],"loss_changes":[5.9571055E3,2.0138855E3,3.6898489E3,9.140322E2,1.2191388E2,6.485378E2,4.8384473E2,2.7212573E2,9.848791E2,1.0922708E2,9.650879E0,5.166109E2,1.4506485E2,5.636166E2,1.4060547E1,1.4853279E1,1.709021E2,8.352515E1,1.0871614E2,1.5431913E1,9.7114716E1,8.836035E0,1.3732605E0,3.8772766E1,5.0463715E2,1.05396545E2,9.779022E0,2.7839487E2,2.5770752E1,6.655441E1,0E0,0E0,0E0,0E0,0E0,0E0,0E0,0E0,0E0,0E0,0E0,0E0,0E0,0E0,0E0,0E0,0E0,0E0,0E0,0E0,0E0,0E0,0E0,0E0,0E0,0E0,0E0,0E0,0E0,0E0,0E0],"parents":[2147483647,0,0,1,1,2,2,3,3,4,4,5,5,6,6,7,7,8,8,9,9,10,10,11,11,12,12,13,13,14,14,15,15,16,16,17,17,18,18,19,19,20,20,21,21,22,22,23,23,24,24,25,25,26,26,27,27,28,28,29,29],"right_children":[2,4,6,8,10,12,14,16,18,20,22,24,26,28,30,32,34,36,38,40,42,44,46,48,50,52,54,56,58,60,-1,-1,-1,-1,-1,-1,-1,-1,-1,-1,-1,-1,-1,-1,-1,-1,-1,-1,-1,-1,-1,-1,-1,-1,-1,-1,-1,-1,-1,-1,-1],"split_conditions":[5.721404E0,1E0,3.6734695E1,5.201256E0,8.518519E1,1E0,6.0485535E0,2.631579E1,7.55102E1,5.1308846E0,4.7463803E0,6.6802273E0,2.4E1,6.428571E1,6.115156E0,5.166689E0,8.68421E1,1.7272728E1,5.5600405E0,2.0454546E1,1.3333333E1,4.644391E0,5.0998664E0,6.1330366E0,1.1764706E1,6.714777E0,5.753102E0,1E0,8E1,5.2173912E1,-5E-2,1.4504844E-2,3.622029E-2,5E-2,2.8005728E-2,1.3486559E-2,2.9356172E-2,-6.6992366E-3,-3.289294E-2,2.8178552E-2,-4.58583E-4,7.463995E-3,-3.33035E-2,-4.8802327E-2,2.8318865E-2,-3.905678E-2,-5E-2,2.9899245E-2,1.7812947E-2,2.7867986E-2,-5E-2,-6.370425E-3,-5E-2,-1.4164823E-2,-5E-2,5.5005713E-3,-5E-2,-3.9517097E-2,-5E-2,-8.649886E-3,-5E-2],"split_indices":[1,0,2,1,2,0,1,2,2,1,1,1,2,2,1,1,2,2,1,2,2,1,1,1,2,1,1,0,2,2,0,0,0,0,0,0,0,0,0,0,0,0,0,0,0,0,0,0,0,0,0,0,0,0,0,0,0,0,0,0,0],"split_type":[0,0,0,0,0,0,0,0,0,0,0,0,0,0,0,0,0,0,0,0,0,0,0,0,0,0,0,0,0,0,0,0,0,0,0,0,0,0,0,0,0,0,0,0,0,0,0,0,0,0,0,0,0,0,0,0,0,0,0,0,0],"sum_hessian":[2.5776387E4,1.4814965E4,1.0961422E4,1.2890016E4,1.9249491E3,4.590067E3,6.3713545E3,4.907812E3,7.9822036E3,1.6182471E3,3.0670203E2,3.6541145E3,9.359524E2,2.775077E3,3.5962778E3,7.674738E2,4.1403384E3,6.0985513E3,1.8836521E3,3.1288217E2,1.3053649E3,1.3060444E1,2.9364157E2,2.85951E3,7.946047E2,6.3427295E2,3.0167944E2,1.3007412E3,1.4743356E3,4.2234445E2,3.1739333E3,6.7861914E2,8.885464E1,3.2508672E3,8.8947125E2,9.929103E2,5.105641E3,1.317817E3,5.6583514E2,5.6612766E1,2.562694E2,1.671947E2,1.1381702E3,5.7120743E0,7.34837E0,4.8544987E1,2.450966E2,1.7980328E3,1.061477E3,3.2451776E2,4.700869E2,5.0610733E2,1.2816562E2,1.9984613E1,2.8169482E2,1.0775083E3,2.23233E2,6.080244E2,8.663111E2,1.1979399E2,3.0255045E2],"tree_param":{"num_deleted":"0","num_feature":"3","num_nodes":"61","size_leaf_vector":"1"}},{"base_weights":[1.0914452E-2,4.3050346E-1,-4.9339807E-1,5.6434333E-1,-4.8694462E-1,3.9657146E-2,-1E0,9.492036E-1,4.0880266E-1,6.883826E-2,-6.100574E-1,2.2074036E-1,-7.6211154E-1,-6.170871E-1,-1E0,2.9383916E-1,1E0,5.872082E-1,-1.5771851E-1,7.340539E-1,-7.5907074E-2,-1.10907085E-1,-7.43783E-1,4.007547E-1,-4.8784304E-1,4.2094243E-1,-1E0,-4.4815394E-1,-5E-2,-8.642584E-1,-5E-2,-2.720263E-2,1.5904423E-2,5E-2,3.3418085E-2,1.4837608E-2,3.2045454E-2,3.0927465E-3,-2.6777908E-2,2.6364362E-2,5E-2,1.3284742E-2,-1.32782115E-2,8.3986094E-4,-2.6800586E-2,-2.9286657E-2,-4.889138E-2,2.6309704E-2,8.264513E-3,4.4325925E-4,-4.2165082E-2,3.0903358E-2,-5E-2,-3.3651233E-2,-5E-2,-6.520019E-3,-3.931082E-2,-1.2361599E-2,-5E-2],"categories":[],"categories_nodes":[],"categories_segments":[],"categories_sizes":[],"default_left":[0,0,0,0,0,0,0,0,0,0,0,0,0,0,0,0,0,0,0,0,0,0,0,0,0,0,0,0,0,0,0,0,0,0,0,0,0,0,0,0,0,0,0,0,0,0,0,0,0,0,0,0,0,0,0,0,0,0,0],"id":1,"left_children":[1,3,5,7,9,11,13,15,17,19,21,23,25,27,29,31,33,35,37,39,41,43,45,47,49,51,53,55,-1,57,-1,-1,-1,-1,-1,-1,-1,-1,-1,-1,-1,-1,-1,-1,-1,-1,-1,-1,-1,-1,-1,-1,-1,-1,-1,-1,-1,-1,-1],"loss_changes":[5.4938184E3,1.7404424E3,3.5150212E3,7.39979E2,1.2353012E2,8.7891833E2,3.512378E2,2.4208594E2,8.9051917E2,3.1654854E1,9.854437E1,6.3008655E2,5.856625E2,2.460263E2,1.2771973E1,1.0451889E1,6.3649902E1,1.043186E2,1.7514603E2,3.9397697E0,1.7591356E1,1.7021889E1,4.252832E1,1.1623804E2,1.7671507E2,9.946851E1,1.7407593E1,2.1128021E2,0E0,6.530524E1,0E0,0E0,0E0,0E0,0E0,0E0,0E0,0E0,0E0,0E0,0E0,0E0,0E0,0E0,0E0,0E0,0E0,0E0,0E0,0E0,0E0,0E0,0E0,0E0,0E0,0E0,0E0,0E0,0E0],"parents":[2147483647,0,0,1,1,2,2,3,3,4,4,5,5,6,6,7,7,8,8,9,9,10,10,11,11,12,12,13,13,14,14,15,15,16,16,17,17,18,18,19,19,20,20,21,21,22,22,23,23,24,24,25,25,26,26,27,27,29,29],"right_children":[2,4,6,8,10,12,14,16,18,20,22,24,26,28,30,32,34,36,38,40,42,44,46,48,50,52,54,56,-1,58,-1,-1,-1,-1,-1,-1,-1,-1,-1,-1,-1,-1,-1,-1,-1,-1,-1,-1,-1,-1,-1,-1,-1,-1,-1,-1,-1,-1,-1],"split_conditions":[5.6756115E0,1E0,4.5833332E1,5.078294E0,2.1428572E1,6.738942E0,5.988126E0,2.631579E1,7.692308E1,5.1308846E0,5.108971E0,1E0,1E1,1E0,6.1330366E0,1.1111111E1,8.823529E1,1.7272728E1,5.4595857E0,5.0657544E0,1.1111111E1,8.214286E1,6.470588E1,6.1232233E0,1.875E1,7.706313E0,6.8921337E0,7.3333336E1,-5E-2,5.5E1,-5E-2,-2.720263E-2,1.5904423E-2,5E-2,3.3418085E-2,1.4837608E-2,3.2045454E-2,3.0927465E-3,-2.6777908E-2,2.6364362E-2,5E-2,1.3284742E-2,-1.32782115E-2,8.3986094E-4,-2.6800586E-2,-2.9286657E-2,-4.889138E-2,2.6309704E-2,8.264513E-3,4.4325925E-4,-4.2165082E-2,3.0903358E-2,-5E-2,-3.3651233E-2,-5E-2,-6.520019E-3,-3.931082E-2,-1.2361599E-2,-5E-2],"split_indices":[1,0,2,1,2,1,1,2,2,1,1,0,2,0,1,2,2,2,1,1,2,2,2,1,2,1,1,2,0,2,0,0,0,0,0,0,0,0,0,0,0,0,0,0,0,0,0,0,0,0,0,0,0,0,0,0,0,0,0],"split_type":[0,0,0,0,0,0,0,0,0,0,0,0,0,0,0,0,0,0,0,0,0,0,0,0,0,0,0,0,0,0,0,0,0,0,0,0,0,0,0,0,0,0,0,0,0,0,0,0,0,0,0,0,0,0,0,0,0,0,0],"sum_hessian":[2.5960732E4,1.41707705E4,1.1789962E4,1.23670205E4,1.8037502E3,6.0515464E3,5.7384155E3,3.5580632E3,8.808957E3,3.27177E2,1.4765732E3,4.9371846E3,1.1143616E3,2.401345E3,3.3370706E3,5.0489105E2,3.053172E3,6.699236E3,2.109721E3,5.7741096E1,2.694359E2,3.123839E2,1.1641893E3,3.937344E3,9.998407E2,3.2082114E2,7.9354047E2,1.9668048E3,4.3454013E2,7.464466E2,2.590624E3,1.3598049E1,4.9129303E2,2.4663596E3,5.868124E2,1.0463411E3,5.652895E3,1.3348422E3,7.748787E2,3.969846E1,1.8042639E1,9.6044304E1,1.733916E2,2.4095874E2,7.1425156E1,6.970055E2,4.6718384E2,2.5680352E3,1.369309E3,4.1746356E2,5.8237714E2,2.8555838E2,3.5262775E1,1.7117426E2,6.223662E2,1.01457007E3,9.5223474E2,1.403148E2,6.061318E2],"tree_param":{"num_deleted":"0","num_feature":"3","num_nodes":"59","size_leaf_vector":"1"}},{"base_weights":[-1.1700424E-2,3.9828768E-1,-5.0559264E-1,5.273366E-1,-4.7149685E-1,8.276581E-3,-1E0,6.2248653E-1,-4.089344E-2,2.8772404E-2,-5.875091E-1,1.8734401E-1,-7.796838E-1,-6.0439265E-1,-1E0,8.6389095E-1,4.6550027E-1,5.3104407E-1,-5.1544154E-1,2.1701656E-1,-1.6640157E-1,-3.5152555E-1,-7.943682E-1,3.5424346E-1,-4.6121106E-1,2.7223417E-1,-1E0,-4.0643653E-1,-5E-2,-8.894618E-1,-5E-2,2.2179697E-2,5E-2,2.5559101E-2,1.8847317E-3,5E-2,9.946217E-3,-1.5362188E-2,-3.517661E-2,7.951024E-3,5E-2,2.5086213E-2,-1.5311462E-2,-1.2550629E-2,-3.986288E-2,-2.8952321E-2,-4.8154946E-2,2.231096E-2,6.5360325E-3,-6.186306E-3,-4.522005E-2,2.2621138E-2,-5E-2,-3.6642317E-2,-5E-2,-1.4042443E-3,-3.6505263E-2,-1.4815079E-2,-4.980122E-2],"categories":[],"categories_nodes":[],"categories_segments":[],"categories_sizes":[],"default_left":[0,0,0,0,0,0,0,0,0,0,0,0,0,0,0,0,0,0,0,0,0,0,0,0,0,0,0,0,0,0,0,0,0,0,0,0,0,0,0,0,0,0,0,0,0,0,0,0,0,0,0,0,0,0,0,0,0,0,0],"id":2,"left_children":[1,3,5,7,9,11,13,15,17,19,21,23,25,27,29,31,33,35,37,39,41,43,45,47,49,51,53,55,-1,57,-1,-1,-1,-1,-1,-1,-1,-1,-1,-1,-1,-1,-1,-1,-1,-1,-1,-1,-1,-1,-1,-1,-1,-1,-1,-1,-1,-1,-1],"loss_changes":[5.220708E3,1.5815469E3,3.0028047E3,6.63334E2,1.056846E2,8.1379785E2,4.390625E2,3.9784644E2,4.781213E2,1.2663378E1,7.186975E1,5.0886047E2,4.9142578E2,3.6630884E2,9.369629E0,2.9056323E2,1.24466675E2,1.3438329E2,3.748445E1,1.0879224E1,1.59705105E1,3.0811287E1,2.8028015E1,7.679541E1,1.4381866E2,8.138002E1,1.7062988E1,2.806103E2,0E0,5.3348877E1,0E0,0E0,0E0,0E0,0E0,0E0,0E0,0E0,0E0,0E0,0E0,0E0,0E0,0E0,0E0,0E0,0E0,0E0,0E0,0E0,0E0,0E0,0E0,0E0,0E0,0E0,0E0,0E0,0E0],"parents":[2147483647,0,0,1,1,2,2,3,3,4,4,5,5,6,6,7,7,8,8,9,9,10,10,11,11,12,12,13,13,14,14,15,15,16,16,17,17,18,18,19,19,20,20,21,21,22,22,23,23,24,24,25,25,26,26,27,27,29,29],"right_children":[2,4,6,8,10,12,14,16,18,20,22,24,26,28,30,32,34,36,38,40,42,44,46,48,50,52,54,56,-1,58,-1,-1,-1,-1,-1,-1,-1,-1,-1,-1,-1,-1,-1,-1,-1,-1,-1,-1,-1,-1,-1,-1,-1,-1,-1,-1,-1,-1,-1],"split_conditions":[5.6756115E0,1E0,4.4444443E1,8.823529E1,2.1428572E1,6.738942E0,6.0485535E0,5.201256E0,5.201256E0,5.428614E0,5.358157E0,1E0,1.1111111E1,1E0,6.2461066E0,3.6734695E1,7.826087E1,4.805386E0,5.422009E0,5.422009E0,8.181818E0,8.6666664E1,5.2173912E1,3.125E1,2.4E1,7.706313E0,2.1428572E1,6.875E1,-5E-2,5.2173912E1,-5E-2,2.2179697E-2,5E-2,2.5559101E-2,1.8847317E-3,5E-2,9.946217E-3,-1.5362188E-2,-3.517661E-2,7.951024E-3,5E-2,2.5086213E-2,-1.5311462E-2,-1.2550629E-2,-3.986288E-2,-2.8952321E-2,-4.8154946E-2,2.231096E-2,6.5360325E-3,-6.186306E-3,-4.522005E-2,2.2621138E-2,-5E-2,-3.6642317E-2,-5E-2,-1.4042443E-3,-3.6505263E-2,-1.4815079E-2,-4.980122E-2],"split_indices":[1,0,2,2,2,1,1,1,1,1,1,0,2,0,1,2,2,1,1,1,2,2,2,2,2,1,2,2,0,2,0,0,0,0,0,0,0,0,0,0,0,0,0,0,0,0,0,0,0,0,0,0,0,0,0,0,0,0,0],"split_type":[0,0,0,0,0,0,0,0,0,0,0,0,0,0,0,0,0,0,0,0,0,0,0,0,0,0,0,0,0,0,0,0,0,0,0,0,0,0,0,0,0,0,0,0,0,0,0,0,0,0,0,0,0,0,0,0,0,0,0],"sum_hessian":[2.578056E4,1.4086946E4,1.1693614E4,1.2267262E4,1.8196854E3,5.76557E3,5.9280444E3,1.0507662E4,1.7595996E3,3.426892E2,1.4769962E3,4.6985635E3,1.0670067E3,2.8108071E3,3.1172373E3,4.1387803E3,6.368882E3,7.978687E2,9.617309E2,1.7438448E2,1.6830473E2,6.9119025E2,7.8580597E2,3.7372673E3,9.612961E2,3.3526144E2,7.3174524E2,2.2906008E3,5.202063E2,8.4768195E2,2.2695554E3,1.1885026E3,2.9502776E3,5.7542407E3,6.1464105E2,3.141259E2,4.8374283E2,4.5771692E2,5.0401398E2,1.6782509E2,6.5593786E0,2.8679573E1,1.3962515E2,5.6528186E2,1.2590842E2,3.471854E2,4.386206E2,2.6470544E3,1.0902129E3,5.4645496E2,4.1484113E2,2.9605453E2,3.9206905E1,2.5208537E2,4.7965985E2,1.0565898E3,1.234011E3,1.2967139E2,7.1801056E2],"tree_param":{"num_deleted":"0","num_feature":"3","num_nodes":"59","size_leaf_vector":"1"}},{"base_weights":[-1.907175E-2,3.528011E-1,-5.1374763E-1,4.7602072E-1,-4.618739E-1,-7.910151E-3,-1E0,8.2360804E-1,3.2865435E-1,-3.303422E-1,-7.603249E-1,1.647327E-1,-6.949274E-1,-6.766274E-1,-1E0,1.7233509E-1,9.311407E-1,4.895453E-1,-2.4475925E-1,8.184225E-2,-4.236162E-1,-5.581384E-1,-5E-2,3.3576477E-1,-5.166189E-1,3.0748188E-1,-1E0,-5.085224E-1,-5E-2,-9.3792754E-1,-5E-2,-5E-2,9.1792215E-3,5E-2,3.1814512E-2,2.7567605E-2,1.6010387E-2,1.9496748E-4,-2.5866017E-2,-4.24071E-2,5.9555466E-3,1.4809027E-2,-2.5352074E-2,-2.1957677E-2,-3.9945E-2,2.2721304E-2,4.9248408E-3,-1.1226776E-2,-4.6920534E-2,2.3630645E-2,-5E-2,-3.0402442E-2,-5E-2,-8.010111E-3,-3.788526E-2,-3.2354947E-2,-5E-2],"categories":[],"categories_nodes":[],"categories_segments":[],"categories_sizes":[],"default_left":[0,0,0,0,0,0,0,0,0,0,0,0,0,0,0,0,0,0,0,0,0,0,0,0,0,0,0,0,0,0,0,0,0,0,0,0,0,0,0,0,0,0,0,0,0,0,0,0,0,0,0,0,0,0,0,0,0],"id":3,"left_children":[1,3,5,7,9,11,13,15,17,19,21,23,25,27,29,31,33,35,37,39,41,43,-1,45,47,49,51,53,-1,55,-1,-1,-1,-1,-1,-1,-1,-1,-1,-1,-1,-1,-1,-1,-1,-1,-1,-1,-1,-1,-1,-1,-1,-1,-1,-1,-1],"loss_changes":[4.7190005E3,1.4702554E3,3.1225188E3,6.5131665E2,7.529407E1,6.901923E2,2.3421143E2,2.6503857E2,8.244296E2,5.1457077E1,4.1283234E1,5.4210834E2,5.2066455E2,2.014126E2,2.0532227E0,9.402889E0,1.0502588E2,7.285217E1,1.3272964E2,8.684581E0,6.565579E1,1.0808487E1,0E0,1.0463269E2,1.14797516E2,9.083266E1,3.017273E1,1.5712836E2,0E0,3.498889E1,0E0,0E0,0E0,0E0,0E0,0E0,0E0,0E0,0E0,0E0,0E0,0E0,0E0,0E0,0E0,0E0,0E0,0E0,0E0,0E0,0E0,0E0,0E0,0E0,0E0,0E0,0E0],"parents":[2147483647,0,0,1,1,2,2,3,3,4,4,5,5,6,6,7,7,8,8,9,9,10,10,11,11,12,12,13,13,14,14,15,15,16,16,17,17,18,18,19,19,20,20,21,21,23,23,24,24,25,25,26,26,27,27,29,29],"right_children":[2,4,6,8,10,12,14,16,18,20,22,24,26,28,30,32,34,36,38,40,42,44,-1,46,48,50,52,54,-1,56,-1,-1,-1,-1,-1,-1,-1,-1,-1,-1,-1,-1,-1,-1,-1,-1,-1,-1,-1,-1,-1,-1,-1,-1,-1,-1,-1],"split_conditions":[5.7153816E0,1E0,4.7058823E1,5.108971E0,6.8181816E1,6.714777E0,6.0485535E0,2.631579E1,7.826087E1,5.121978E0,5.4930615E0,1E0,1.1764706E1,1E0,6.2461066E0,8.181818E0,8.2608696E1,5.8333332E1,5.422009E0,1.3333333E1,1.1111111E1,9.1304344E1,-5E-2,3.125E1,2.631579E1,7.706313E0,6.8921337E0,6.8181816E1,-5E-2,6.8181816E1,-5E-2,-5E-2,9.1792215E-3,5E-2,3.1814512E-2,2.7567605E-2,1.6010387E-2,1.9496748E-4,-2.5866017E-2,-4.24071E-2,5.9555466E-3,1.4809027E-2,-2.5352074E-2,-2.1957677E-2,-3.9945E-2,2.2721304E-2,4.9248408E-3,-1.1226776E-2,-4.6920534E-2,2.3630645E-2,-5E-2,-3.0402442E-2,-5E-2,-8.010111E-3,-3.788526E-2,-3.2354947E-2,-5E-2],"split_indices":[1,0,2,1,2,1,1,2,2,1,1,0,2,0,1,2,2,2,1,2,2,2,0,2,2,1,1,2,0,2,0,0,0,0,0,0,0,0,0,0,0,0,0,0,0,0,0,0,0,0,0,0,0,0,0,0,0],"split_type":[0,0,0,0,0,0,0,0,0,0,0,0,0,0,0,0,0,0,0,0,0,0,0,0,0,0,0,0,0,0,0,0,0,0,0,0,0,0,0,0,0,0,0,0,0,0,0,0,0,0,0,0,0,0,0,0,0],"sum_hessian":[2.5650814E4,1.4643125E4,1.1007689E4,1.27196875E4,1.9234376E3,5.8171094E3,5.1905806E3,3.7857646E3,8.933923E3,1.3365205E3,5.869171E2,4.649485E3,1.1676243E3,2.2483186E3,2.9422617E3,5.3686115E2,3.2489033E3,6.9765557E3,1.9573668E3,2.4665538E2,1.0898651E3,3.8854593E2,1.9837119E2,3.716964E3,9.3252075E2,3.67777E2,7.998472E2,1.8107295E3,4.375891E2,7.91416E2,2.1508457E3,2.7495685E0,5.341116E2,2.3319165E3,9.16987E2,5.109408E3,1.8671473E3,1.0240801E3,9.332868E2,8.665414E0,2.3798997E2,1.1293209E2,9.7693304E2,2.619257E2,1.26620224E2,2.4771758E3,1.2397885E3,5.518835E2,3.8063727E2,3.3205542E2,3.5721584E1,2.0191318E2,5.97934E2,7.558321E2,1.0548973E3,3.124933E2,4.7892276E2],"tree_param":{"num_deleted":"0","num_feature":"3","num_nodes":"57","size_leaf_vector":"1"}},{"base_weights":[-1.1685898E-2,2.8143787E-1,-6.1815894E-1,4.087838E-1,-5.122569E-1,7.404388E-2,-1E0,7.1652097E-1,2.2406064E-1,-3.3801425E-1,-9.170414E-1,2.5018662E-1,-5.926366E-1,-5.589559E-1,-1E0,2.953474E-1,7.991518E-1,4.3794033E-1,-2.600066E-1,1.13128185E-1,-4.3954238E-1,-6.4259076E-1,-5E-2,3.231958E-1,-9.225717E-1,-2.275279E-1,-8.954886E-1,-8.340231E-2,-8.569857E-1,-7.998565E-1,-5E-2,7.5871022E-3,2.0235267E-2,5E-2,3.2742824E-2,2.5471596E-2,9.862959E-3,-1.1373676E-3,-2.7539475E-2,3.7115764E-2,2.8259908E-3,6.2157125E-3,-2.5608128E-2,-2.46265E-2,-4.5365028E-2,2.4146628E-2,5.3908923E-3,2.0553358E-2,-5E-2,-8.630853E-3,-5E-2,-2.7059872E-2,-5E-2,7.0137787E-3,-5E-2,-3.440243E-2,-5E-2,-3.1535577E-2,-5E-2],"categories":[],"categories_nodes":[],"categories_segments":[],"categories_sizes":[],"default_left":[0,0,0,0,0,0,0,0,0,0,0,0,0,0,0,0,0,0,0,0,0,0,0,0,0,0,0,0,0,0,0,0,0,0,0,0,0,0,0,0,0,0,0,0,0,0,0,0,0,0,0,0,0,0,0,0,0,0,0],"id":4,"left_children":[1,3,5,7,9,11,13,15,17,19,21,23,25,27,29,31,33,35,37,39,41,43,-1,45,47,49,51,53,55,57,-1,-1,-1,-1,-1,-1,-1,-1,-1,-1,-1,-1,-1,-1,-1,-1,-1,-1,-1,-1,-1,-1,-1,-1,-1,-1,-1,-1,-1],"loss_changes":[4.5792827E3,1.7554546E3,2.3663433E3,8.505686E2,1.6907086E2,3.6571658E2,3.556001E2,1.9511157E2,9.684844E2,7.70195E1,4.2731018E1,2.111986E2,7.17686E1,2.5975122E2,2.539795E1,1.44214325E1,1.8760449E2,1.1152698E2,1.9777576E2,1.0981511E1,5.624066E1,1.4697098E1,0E0,7.974878E1,3.2262985E1,1.8267227E1,2.7744507E1,1.5995963E2,6.171118E1,4.421591E1,0E0,0E0,0E0,0E0,0E0,0E0,0E0,0E0,0E0,0E0,0E0,0E0,0E0,0E0,0E0,0E0,0E0,0E0,0E0,0E0,0E0,0E0,0E0,0E0,0E0,0E0,0E0,0E0,0E0],"parents":[2147483647,0,0,1,1,2,2,3,3,4,4,5,5,6,6,7,7,8,8,9,9,10,10,11,11,12,12,13,13,14,14,15,15,16,16,17,17,18,18,19,19,20,20,21,21,23,23,24,24,25,25,26,26,27,27,28,28,29,29],"right_children":[2,4,6,8,10,12,14,16,18,20,22,24,26,28,30,32,34,36,38,40,42,44,-1,46,48,50,52,54,56,58,-1,-1,-1,-1,-1,-1,-1,-1,-1,-1,-1,-1,-1,-1,-1,-1,-1,-1,-1,-1,-1,-1,-1,-1,-1,-1,-1,-1,-1],"split_conditions":[5.8768015E0,1E0,3.1578947E1,5.2574954E0,6.875E1,1E0,6.115156E0,2.631579E1,6.875E1,5.166689E0,5.4985332E0,7.5310163E0,1.4754098E1,5.5E1,6.2595816E0,5.021685E0,4.8507276E0,5.2173912E1,5.5600405E0,4.5968018E0,1.1111111E1,9.090909E1,-5E-2,1.7857143E1,3.3333333E0,7.706313E0,6.196444E0,1E0,1E0,1E0,-5E-2,7.5871022E-3,2.0235267E-2,5E-2,3.2742824E-2,2.5471596E-2,9.862959E-3,-1.1373676E-3,-2.7539475E-2,3.7115764E-2,2.8259908E-3,6.2157125E-3,-2.5608128E-2,-2.46265E-2,-4.5365028E-2,2.4146628E-2,5.3908923E-3,2.0553358E-2,-5E-2,-8.630853E-3,-5E-2,-2.7059872E-2,-5E-2,7.0137787E-3,-5E-2,-3.440243E-2,-5E-2,-3.1535577E-2,-5E-2],"split_indices":[1,0,2,1,2,0,1,2,2,1,1,1,2,2,1,1,1,2,1,1,2,2,0,2,2,1,1,0,0,0,0,0,0,0,0,0,0,0,0,0,0,0,0,0,0,0,0,0,0,0,0,0,0,0,0,0,0,0,0],"split_type":[0,0,0,0,0,0,0,0,0,0,0,0,0,0,0,0,0,0,0,0,0,0,0,0,0,0,0,0,0,0,0,0,0,0,0,0,0,0,0,0,0,0,0,0,0,0,0,0,0,0,0,0,0,0,0,0,0,0,0],"sum_hessian":[2.5757373E4,1.7364977E4,8.392396E3,1.496446E4,2.4005173E3,3.1120503E3,5.2803467E3,5.612128E3,9.352332E3,1.679429E3,7.210883E2,2.4621528E3,6.4989734E2,1.8322336E3,3.448113E3,9.212158E2,4.690912E3,6.4864585E3,2.8658735E3,3.084979E2,1.370931E3,3.8024338E2,3.4084497E2,2.3185383E3,1.4361444E2,2.9545615E2,3.544412E2,7.063772E2,1.1258564E3,6.5800323E2,2.7901099E3,3.9928067E2,5.219351E2,1.5197866E3,3.1711255E3,5.0001147E3,1.4863438E3,1.5787764E3,1.287097E3,2.446481E1,2.8403308E2,1.5633812E2,1.2145929E3,2.4449997E2,1.3574341E2,1.3305117E3,9.880267E2,1.6141176E1,1.2747327E2,2.8555746E2,9.898666E0,1.5399731E2,2.0044388E2,5.798699E2,1.2650731E2,8.8026184E2,2.4559462E2,5.241283E2,1.3387488E2],"tree_param":{"num_deleted":"0","num_feature":"3","num_nodes":"59","size_leaf_vector":"1"}},{"base_weights":[-6.8590837E-3,2.0236905E-1,-7.70936E-1,3.32045E-1,-5.4841065E-1,1.3692306E-1,-1E0,6.771845E-1,1.6559201E-1,-2.2090514E-1,-7.4251854E-1,2.4500275E-1,-1E0,-7.099933E-1,-1E0,1E0,5.7776684E-1,3.878514E-1,-3.478979E-1,2.7891582E-1,-2.9492876E-1,-4.4666922E-1,-1E0,3.7364095E-1,-2.3980622E-1,-5.336407E-1,-5E-2,-5.074891E-1,-1E0,-7.4661344E-1,-5E-2,2.3991084E-2,5E-2,3.2979455E-2,4.011337E-3,2.2807423E-2,7.902144E-3,-1.6223576E-3,-3.0220497E-2,1.7045876E-2,-4.927798E-2,2.2555386E-4,-2.0380238E-2,-1.0612541E-3,-2.9348353E-2,-5E-2,-8.872327E-3,2.4177035E-2,1.1566016E-3,1.2194404E-3,-4.4916894E-2,-4.0191583E-2,1.7372908E-2,-5.1696487E-3,-3.9775234E-2,-3.125633E-2,-5E-2,-1.7294588E-2,-5E-2],"categories":[],"categories_nodes":[],"categories_segments":[],"categories_sizes":[],"default_left":[0,0,0,0,0,0,0,0,0,0,0,0,0,0,0,0,0,0,0,0,0,0,0,0,0,0,0,0,0,0,0,0,0,0,0,0,0,0,0,0,0,0,0,0,0,0,0,0,0,0,0,0,0,0,0,0,0,0,0],"id":5,"left_children":[1,3,5,7,9,11,13,15,17,19,21,23,25,27,29,31,33,35,37,39,41,43,45,47,49,51,-1,53,55,57,-1,-1,-1,-1,-1,-1,-1,-1,-1,-1,-1,-1,-1,-1,-1,-1,-1,-1,-1,-1,-1,-1,-1,-1,-1,-1,-1,-1,-1],"loss_changes":[4.110052E3,1.9651289E3,1.8712983E3,9.886365E2,1.8882977E2,2.3196489E2,9.18667E1,1.9603784E2,1.3254272E3,4.1067123E1,1.9013843E2,9.646149E1,9.01152E0,1.1586609E2,1.7252441E1,3.889209E1,1.7818372E2,1.27135864E2,2.838733E2,1.1579142E1,3.2571922E1,6.1369812E1,7.90979E0,4.7047318E1,5.650511E1,1.1237868E1,0E0,1.0054967E2,3.4838867E-1,5.313417E1,0E0,0E0,0E0,0E0,0E0,0E0,0E0,0E0,0E0,0E0,0E0,0E0,0E0,0E0,0E0,0E0,0E0,0E0,0E0,0E0,0E0,0E0,0E0,0E0,0E0,0E0,0E0,0E0,0E0],"parents":[2147483647,0,0,1,1,2,2,3,3,4,4,5,5,6,6,7,7,8,8,9,9,10,10,11,11,12,12,13,13,14,14,15,15,16,16,17,17,18,18,19,19,20,20,21,21,22,22,23,23,24,24,25,25,27,27,28,28,29,29],"right_children":[2,4,6,8,10,12,14,16,18,20,22,24,26,28,30,32,34,36,38,40,42,44,46,48,50,52,-1,54,56,58,-1,-1,-1,-1,-1,-1,-1,-1,-1,-1,-1,-1,-1,-1,-1,-1,-1,-1,-1,-1,-1,-1,-1,-1,-1,-1,-1,-1,-1],"split_conditions":[6.115156E0,1E0,2.4E1,5.2574954E0,3.5294117E1,7.5310163E0,6.3365307E0,4.7463803E0,6.8181816E1,8.695652E0,5.6113014E0,1E0,7.6923075E0,1E0,3.076923E1,2.631579E1,8.8888885E1,5.2173912E1,5.5600405E0,6.0485535E0,5.358157E0,5.0998664E0,6.1081357E0,1.7857143E1,6.738942E0,6.6666665E0,-5E-2,5.2173912E1,2.631579E1,6.8655434E0,-5E-2,2.3991084E-2,5E-2,3.2979455E-2,4.011337E-3,2.2807423E-2,7.902144E-3,-1.6223576E-3,-3.0220497E-2,1.7045876E-2,-4.927798E-2,2.2555386E-4,-2.0380238E-2,-1.0612541E-3,-2.9348353E-2,-5E-2,-8.872327E-3,2.4177035E-2,1.1566016E-3,1.2194404E-3,-4.4916894E-2,-4.0191583E-2,1.7372908E-2,-5.1696487E-3,-3.9775234E-2,-3.125633E-2,-5E-2,-1.7294588E-2,-5E-2],"split_indices":[1,0,2,1,2,1,1,1,2,2,1,0,2,0,2,2,2,2,1,1,1,1,1,2,1,2,0,2,2,1,0,0,0,0,0,0,0,0,0,0,0,0,0,0,0,0,0,0,0,0,0,0,0,0,0,0,0,0,0],"split_type":[0,0,0,0,0,0,0,0,0,0,0,0,0,0,0,0,0,0,0,0,0,0,0,0,0,0,0,0,0,0,0,0,0,0,0,0,0,0,0,0,0,0,0,0,0,0,0,0,0,0,0,0,0,0,0,0,0,0,0],"sum_hessian":[2.5707322E4,2.0181682E4,5.52564E3,1.7209744E4,2.971938E3,1.671824E3,3.853816E3,5.598406E3,1.1611338E4,1.1067422E3,1.8651959E3,1.5442891E3,1.2753494E2,1.1031937E3,2.7506223E3,1.221196E3,4.37721E3,8.1038887E3,3.507449E3,1.424082E2,9.643339E2,1.0273699E3,8.3782605E2,1.2206371E3,3.23652E2,4.5031853E1,8.250308E1,8.6363995E2,2.3955371E2,2.8327933E2,2.467343E3,1.4642876E2,1.0747673E3,3.7587446E3,6.184652E2,6.2464995E3,1.8573895E3,1.5735146E3,1.9339343E3,1.3644806E2,5.960141E0,2.639196E2,7.0041437E2,2.5506197E2,7.7230786E2,8.256575E2,1.2168601E1,9.2898157E2,2.916555E2,2.3167123E2,9.1980774E1,3.4530647E1,1.0501208E1,3.5996088E2,5.0367908E2,8.59513E0,2.3095859E2,1.6818306E2,1.1509628E2],"tree_param":{"num_deleted":"0","num_feature":"3","num_nodes":"59","size_leaf_vector":"1"}},{"base_weights":[-1.5333186E-2,3.191187E-1,-4.639841E-1,4.3264142E-1,-4.4959778E-1,-2.152553E-2,-9.5907485E-1,5.390963E-1,2.7728627E-2,-2.2756082E-1,-6.186868E-1,1.6908346E-1,-5.752821E-1,-6.0415924E-1,-1E0,7.959195E-1,4.1781783E-1,3.382481E-1,-3.6570093E-1,-1.5403344E-1,-7.582933E-1,4.020653E-1,-6.743517E-1,3.3069426E-1,-4.9086457E-1,2.2211735E-1,-1E0,-4.7090465E-1,-1E0,-8.69627E-1,-5E-2,1.6787747E-2,4.9550436E-2,2.4408078E-2,1.1950611E-2,4.6594627E-2,1.0090589E-2,-8.508393E-3,-3.0238742E-2,2.4269639E-2,-9.560558E-3,-1.904787E-2,-5E-2,4.1211426E-2,1.474258E-2,-2.8546033E-2,-4.4877745E-2,2.1675725E-2,9.275458E-3,-9.644382E-3,-4.398112E-2,1.8375417E-2,-5E-2,-3.1736236E-2,-5E-2,-4.7724484E-3,-3.0688474E-2,-5E-2,-3.1040514E-2,-3.576752E-2,-5E-2],"categories":[],"categories_nodes":[],"categories_segments":[],"categories_sizes":[],"default_left":[0,0,0,0,0,0,0,0,0,0,0,0,0,0,0,0,0,0,0,0,0,0,0,0,0,0,0,0,0,0,0,0,0,0,0,0,0,0,0,0,0,0,0,0,0,0,0,0,0,0,0,0,0,0,0,0,0,0,0,0,0],"id":6,"left_children":[1,3,5,7,9,11,13,15,17,19,21,23,25,27,29,31,33,35,37,39,41,43,45,47,49,51,53,55,57,59,-1,-1,-1,-1,-1,-1,-1,-1,-1,-1,-1,-1,-1,-1,-1,-1,-1,-1,-1,-1,-1,-1,-1,-1,-1,-1,-1,-1,-1,-1,-1],"loss_changes":[3.8320527E3,1.277012E3,2.3892258E3,5.4953125E2,7.056088E1,6.0813934E2,3.9566113E2,3.1409497E2,3.244915E2,3.1714596E1,6.0981567E1,4.5731628E2,5.2865686E2,1.7405652E2,7.314453E0,2.902544E2,8.615503E1,1.2004286E2,5.4669266E1,1.7154268E1,1.1632732E1,2.2862139E0,2.288742E1,5.1327454E1,9.755023E1,9.6688545E1,4.94433E1,1.11139465E2,5.959778E0,2.2484344E1,0E0,0E0,0E0,0E0,0E0,0E0,0E0,0E0,0E0,0E0,0E0,0E0,0E0,0E0,0E0,0E0,0E0,0E0,0E0,0E0,0E0,0E0,0E0,0E0,0E0,0E0,0E0,0E0,0E0,0E0,0E0],"parents":[2147483647,0,0,1,1,2,2,3,3,4,4,5,5,6,6,7,7,8,8,9,9,10,10,11,11,12,12,13,13,14,14,15,15,16,16,17,17,18,18,19,19,20,20,21,21,22,22,23,23,24,24,25,25,26,26,27,27,28,28,29,29],"right_children":[2,4,6,8,10,12,14,16,18,20,22,24,26,28,30,32,34,36,38,40,42,44,46,48,50,52,54,56,58,60,-1,-1,-1,-1,-1,-1,-1,-1,-1,-1,-1,-1,-1,-1,-1,-1,-1,-1,-1,-1,-1,-1,-1,-1,-1,-1,-1,-1,-1,-1,-1],"split_conditions":[5.7153816E0,1E0,4.7058823E1,8.125E1,5.358157E0,6.5191474E0,6.115156E0,5.151363E0,5.320568E0,9E1,8.695652E0,1E0,1.3636364E1,1E0,6.2595816E0,3.4615383E1,5.8333332E1,4.7140245E0,9.1860466E1,4.644391E0,5.078294E0,5.453182E0,6.923077E1,2.7777779E1,2.4E1,7.591441E0,6.8655434E0,6.0869564E1,6.0787883E0,1E0,-5E-2,1.6787747E-2,4.9550436E-2,2.4408078E-2,1.1950611E-2,4.6594627E-2,1.0090589E-2,-8.508393E-3,-3.0238742E-2,2.4269639E-2,-9.560558E-3,-1.904787E-2,-5E-2,4.1211426E-2,1.474258E-2,-2.8546033E-2,-4.4877745E-2,2.1675725E-2,9.275458E-3,-9.644382E-3,-4.398112E-2,1.8375417E-2,-5E-2,-3.1736236E-2,-5E-2,-4.7724484E-3,-3.0688474E-2,-5E-2,-3.1040514E-2,-3.576752E-2,-5E-2],"split_indices":[1,0,2,2,1,1,1,1,1,2,2,0,2,0,1,2,2,1,2,1,1,1,2,2,2,1,1,2,1,0,0,0,0,0,0,0,0,0,0,0,0,0,0,0,0,0,0,0,0,0,0,0,0,0,0,0,0,0,0,0,0],"split_type":[0,0,0,0,0,0,0,0,0,0,0,0,0,0,0,0,0,0,0,0,0,0,0,0,0,0,0,0,0,0,0,0,0,0,0,0,0,0,0,0,0,0,0,0,0,0,0,0,0,0,0,0,0,0,0,0,0,0,0,0,0],"sum_hessian":[2.5536152E4,1.4630196E4,1.0905956E4,1.2748027E4,1.8821692E3,5.7596484E3,5.1463076E3,1.0093921E4,2.6541062E3,8.147011E2,1.067468E3,4.2852974E3,1.4743511E3,2.585523E3,2.5607847E3,3.235904E3,6.858017E3,1.4834298E3,1.1706763E3,7.1670013E2,9.8001E1,5.488034E1,1.0125877E3,3.4427273E3,8.425704E2,5.318093E2,9.425417E2,2.0720679E3,5.134549E2,4.881696E2,2.072615E3,9.6423834E2,2.2716658E3,4.9205137E3,1.9375033E3,2.761315E2,1.2072982E3,6.449215E2,5.257548E2,3.8718437E1,6.779817E2,4.7058254E1,5.094275E1,9.760363E0,4.5119976E1,6.9437573E2,3.1821194E2,2.0142487E3,1.4284785E3,4.7782272E2,3.6474768E2,4.76775E2,5.5034317E1,3.7706174E2,5.6548E2,5.715845E2,1.5004835E3,4.6605084E2,4.740406E1,3.9145538E2,9.6714226E1],"tree_param":{"num_deleted":"0","num_feature":"3","num_nodes":"61","size_leaf_vector":"1"}},{"base_weights":[-2.1092735E-2,2.910557E-1,-4.4717795E-1,3.9167604E-1,-3.8432705E-1,1.5930755E-2,-8.6523724E-1,6.617543E-1,2.4391057E-1,-3.0478388E-1,-9.095679E-1,1.5244506E-1,-5.3982055E-1,-5.411647E-1,-1E0,3.4291193E-1,7.589315E-1,3.740612E-1,-2.3285425E-1,1.01898955E-2,-4.040661E-1,-4.0012398E-1,-1E0,2.8311875E-1,-3.4150857E-1,2.480214E-1,-1E0,-3.859933E-1,-1E0,-7.9878837E-1,-5E-2,1.299482E-2,2.5635464E-2,4.97342E-2,3.0265583E-2,5.768902E-3,2.111495E-2,-2.273861E-3,-2.3012532E-2,1.7811986E-2,-5.175119E-3,-4.111457E-3,-2.4954058E-2,-3.1028306E-2,-1.1972345E-4,-3.150252E-2,-5E-2,1.9156614E-2,4.483378E-3,-3.636182E-3,-2.8843267E-2,2.2261817E-2,-2.8251281E-2,-2.3378827E-2,-5E-2,-3.7595057E-3,-3.3272374E-2,-1.5398584E-2,-5E-2,-2.9862035E-2,-5E-2],"categories":[],"categories_nodes":[],"categories_segments":[],"categories_sizes":[],"default_left":[0,0,0,0,0,0,0,0,0,0,0,0,0,0,0,0,0,0,0,0,0,0,0,0,0,0,0,0,0,0,0,0,0,0,0,0,0,0,0,0,0,0,0,0,0,0,0,0,0,0,0,0,0,0,0,0,0,0,0,0,0],"id":7,"left_children":[1,3,5,7,9,11,13,15,17,19,21,23,25,27,29,31,33,35,37,39,41,43,45,47,49,51,53,55,57,59,-1,-1,-1,-1,-1,-1,-1,-1,-1,-1,-1,-1,-1,-1,-1,-1,-1,-1,-1,-1,-1,-1,-1,-1,-1,-1,-1,-1,-1,-1,-1],"loss_changes":[3.3922847E3,1.000552E3,2.0879736E3,5.1117236E2,7.949228E1,3.8834207E2,5.8151855E2,1.4011353E2,5.1407275E2,5.1904816E1,1.5891357E1,2.653301E2,4.2183673E2,3.0095868E2,1.2978027E1,1.4809624E1,1.2511865E2,8.115161E1,7.569186E1,1.5724717E1,3.8548508E1,4.6133804E0,3.9264526E0,6.2847046E1,5.436843E1,6.578653E1,3.876703E1,2.2743268E2,4.5445557E0,2.7993423E1,0E0,0E0,0E0,0E0,0E0,0E0,0E0,0E0,0E0,0E0,0E0,0E0,0E0,0E0,0E0,0E0,0E0,0E0,0E0,0E0,0E0,0E0,0E0,0E0,0E0,0E0,0E0,0E0,0E0,0E0,0E0],"parents":[2147483647,0,0,1,1,2,2,3,3,4,4,5,5,6,6,7,7,8,8,9,9,10,10,11,11,12,12,13,13,14,14,15,15,16,16,17,17,18,18,19,19,20,20,21,21,22,22,23,23,24,24,25,25,26,26,27,27,28,28,29,29],"right_children":[2,4,6,8,10,12,14,16,18,20,22,24,26,28,30,32,34,36,38,40,42,44,46,48,50,52,54,56,58,60,-1,-1,-1,-1,-1,-1,-1,-1,-1,-1,-1,-1,-1,-1,-1,-1,-1,-1,-1,-1,-1,-1,-1,-1,-1,-1,-1,-1,-1,-1,-1],"split_conditions":[5.721404E0,1E0,4.1935482E1,5.1752076E0,8.823529E1,6.738942E0,6.2232375E0,3.4615383E1,7.9245285E1,5.1752076E0,5.0998664E0,1E0,1.3333333E1,1E0,6.3237615E0,2.7777779E1,4.8507276E0,1.7272728E1,9.1304344E1,2.631579E1,2.0454546E1,4.981321E0,9.090909E1,2.7777779E1,2E1,7.5310163E0,6.8921337E0,6.8181816E1,5.7263045E0,1E0,-5E-2,1.299482E-2,2.5635464E-2,4.97342E-2,3.0265583E-2,5.768902E-3,2.111495E-2,-2.273861E-3,-2.3012532E-2,1.7811986E-2,-5.175119E-3,-4.111457E-3,-2.4954058E-2,-3.1028306E-2,-1.1972345E-4,-3.150252E-2,-5E-2,1.9156614E-2,4.483378E-3,-3.636182E-3,-2.8843267E-2,2.2261817E-2,-2.8251281E-2,-2.3378827E-2,-5E-2,-3.7595057E-3,-3.3272374E-2,-1.5398584E-2,-5E-2,-2.9862035E-2,-5E-2],"split_indices":[1,0,2,1,2,1,1,2,2,1,1,0,2,0,1,2,1,2,2,2,2,1,2,2,2,1,1,2,1,0,0,0,0,0,0,0,0,0,0,0,0,0,0,0,0,0,0,0,0,0,0,0,0,0,0,0,0,0,0,0,0],"split_type":[0,0,0,0,0,0,0,0,0,0,0,0,0,0,0,0,0,0,0,0,0,0,0,0,0,0,0,0,0,0,0,0,0,0,0,0,0,0,0,0,0,0,0,0,0,0,0,0,0,0,0,0,0,0,0,0,0,0,0,0,0],"sum_hessian":[2.5503572E4,1.4720041E4,1.0783531E4,1.2811735E4,1.9083063E3,5.11657E3,5.6669614E3,4.529488E3,8.282247E3,1.658692E3,2.4961426E2,4.108168E3,1.0084015E3,3.254852E3,2.4121091E3,1.0590924E3,3.4703955E3,6.5063213E3,1.775926E3,3.977436E2,1.2609485E3,5.163526E1,1.97979E2,3.249066E3,8.591021E2,4.0771228E2,6.006892E2,2.618102E3,6.3675006E2,3.4426294E2,2.0678462E3,7.130205E2,3.4607187E2,1.3670225E3,2.103373E3,1.02311066E3,5.4832104E3,9.742958E2,8.016302E2,9.783273E1,2.9991086E2,2.8783923E2,9.7310925E2,3.2861473E1,1.8773788E1,3.4995857E1,1.6298315E2,2.1411296E3,1.1079364E3,4.0167984E2,4.5742227E2,3.2848618E2,7.922612E1,1.3928397E2,4.6140524E2,1.2401272E3,1.3779749E3,1.0577658E1,6.2617236E2,2.6390625E2,8.03567E1],"tree_param":{"num_deleted":"0","num_feature":"3","num_nodes":"61","size_leaf_vector":"1"}},{"base_weights":[-1.8286383E-2,2.016943E-1,-6.0281736E-1,3.1469434E-1,-4.8710358E-1,2.9423611E-2,-9.769469E-1,4.2061397E-1,-1.0166969E-1,-1.7730168E-1,-6.9899756E-1,1.9510743E-1,-3.605438E-1,-5.9182554E-1,-1E0,5.6089616E-1,2.081143E-1,3.2800767E-1,-4.6997577E-1,3.786668E-1,-2.4777861E-1,-4.0824452E-1,-9.777322E-1,2.9911777E-1,-1.6587715E-1,3.2730928E-1,-8.2811534E-1,-4.2508066E-1,-1E0,-9.042717E-1,-5E-2,5.213953E-3,3.1258296E-2,1.8994601E-2,-7.871328E-3,4.1548666E-2,9.704853E-3,-1.4805615E-2,-3.513156E-2,-3.3131532E-2,2.1001276E-2,3.427593E-4,-1.7349524E-2,-5.2291173E-3,-2.750626E-2,-3.9495002E-2,-5E-2,1.907211E-2,6.097411E-3,-2.4061801E-3,-3.2936353E-2,2.6512826E-2,-3.3123404E-2,-3.2841664E-2,-5E-2,-3.758394E-3,-3.722495E-2,-3.5989758E-2,-5E-2,-1.9183617E-2,-5E-2],"categories":[],"categories_nodes":[],"categories_segments":[],"categories_sizes":[],"default_left":[0,0,0,0,0,0,0,0,0,0,0,0,0,0,0,0,0,0,0,0,0,0,0,0,0,0,0,0,0,0,0,0,0,0,0,0,0,0,0,0,0,0,0,0,0,0,0,0,0,0,0,0,0,0,0,0,0,0,0,0,0],"id":8,"left_children":[1,3,5,7,9,11,13,15,17,19,21,23,25,27,29,31,33,35,37,39,41,43,45,47,49,51,53,55,57,59,-1,-1,-1,-1,-1,-1,-1,-1,-1,-1,-1,-1,-1,-1,-1,-1,-1,-1,-1,-1,-1,-1,-1,-1,-1,-1,-1,-1,-1,-1,-1],"loss_changes":[3.2729226E3,1.439584E3,1.6462944E3,7.007123E2,1.7099658E2,1.6730669E2,3.2328857E2,3.774541E2,5.1018176E2,4.163196E1,1.25026245E2,6.8278564E1,2.4860812E2,1.8228082E2,5.4675293E0,2.2381445E2,3.164138E2,1.0006517E2,7.000458E1,5.431715E0,2.3785854E1,3.2652008E1,1.580127E1,2.0534706E1,2.3595226E1,6.3261288E1,2.8073608E1,1.7236292E2,4.9207764E0,5.6439392E1,0E0,0E0,0E0,0E0,0E0,0E0,0E0,0E0,0E0,0E0,0E0,0E0,0E0,0E0,0E0,0E0,0E0,0E0,0E0,0E0,0E0,0E0,0E0,0E0,0E0,0E0,0E0,0E0,0E0,0E0,0E0],"parents":[2147483647,0,0,1,1,2,2,3,3,4,4,5,5,6,6,7,7,8,8,9,9,10,10,11,11,12,12,13,13,14,14,15,15,16,16,17,17,18,18,19,19,20,20,21,21,22,22,23,23,24,24,25,25,26,26,27,27,28,28,29,29],"right_children":[2,4,6,8,10,12,14,16,18,20,22,24,26,28,30,32,34,36,38,40,42,44,46,48,50,52,54,56,58,60,-1,-1,-1,-1,-1,-1,-1,-1,-1,-1,-1,-1,-1,-1,-1,-1,-1,-1,-1,-1,-1,-1,-1,-1,-1,-1,-1,-1,-1,-1,-1],"split_conditions":[5.9733853E0,1E0,3.076923E1,8.125E1,3.8095238E1,6.756157E0,6.3365307E0,5.52678E0,5.314027E0,8.695652E0,5.4985332E0,1E0,1E1,1E0,6.5191474E0,1.7272728E1,5.2173912E1,4.7463803E0,9.285714E1,5.364417E0,5.3335238E0,5.0998664E0,6.875E1,2.0454546E1,2.4E1,1E0,1E0,6.0869564E1,4.1935482E1,4.4444443E1,-5E-2,5.213953E-3,3.1258296E-2,1.8994601E-2,-7.871328E-3,4.1548666E-2,9.704853E-3,-1.4805615E-2,-3.513156E-2,-3.3131532E-2,2.1001276E-2,3.427593E-4,-1.7349524E-2,-5.2291173E-3,-2.750626E-2,-3.9495002E-2,-5E-2,1.907211E-2,6.097411E-3,-2.4061801E-3,-3.2936353E-2,2.6512826E-2,-3.3123404E-2,-3.2841664E-2,-5E-2,-3.758394E-3,-3.722495E-2,-3.5989758E-2,-5E-2,-1.9183617E-2,-5E-2],"split_indices":[1,0,2,2,2,1,1,1,1,2,1,0,2,0,1,2,2,1,2,1,1,1,2,2,2,0,0,2,2,2,0,0,0,0,0,0,0,0,0,0,0,0,0,0,0,0,0,0,0,0,0,0,0,0,0,0,0,0,0,0,0],"split_type":[0,0,0,0,0,0,0,0,0,0,0,0,0,0,0,0,0,0,0,0,0,0,0,0,0,0,0,0,0,0,0,0,0,0,0,0,0,0,0,0,0,0,0,0,0,0,0,0,0,0,0,0,0,0,0,0,0,0,0,0,0],"sum_hessian":[2.5451328E4,1.849255E4,6.9587773E3,1.5886801E4,2.60575E3,2.5873462E3,4.371431E3,1.2664935E4,3.2218667E3,1.0591074E3,1.5466427E3,1.8162031E3,7.7114294E2,1.9593817E3,2.4120496E3,7.6277905E3,5.037144E3,1.4870903E3,1.7347765E3,1.186607E2,9.4044666E2,7.5820764E2,7.8843506E2,1.4100868E3,4.061164E2,3.1218375E2,4.589592E2,1.541642E3,4.1773972E2,7.047048E2,1.7073448E3,9.4148E2,6.68631E3,3.4267708E3,1.6103732E3,3.1158344E2,1.1755068E3,9.9413324E2,7.406433E2,3.959137E0,1.1470156E2,2.6394507E2,6.765016E2,2.4200018E2,5.1620746E2,3.8848593E2,3.9994913E2,9.6194977E2,4.48137E2,3.2868372E2,7.743269E1,2.5944962E2,5.2734135E1,3.612756E2,9.768359E1,7.3629224E2,8.053498E2,7.440862E1,3.433311E2,1.6723691E2,5.3746783E2],"tree_param":{"num_deleted":"0","num_feature":"3","num_nodes":"61","size_leaf_vector":"1"}},{"base_weights":[-1.2431652E-2,1.6482751E-1,-7.017548E-1,2.7209294E-1,-4.5233253E-1,4.196438E-2,-1E0,5.3631335E-1,1.0508765E-1,-2.2601824E-1,-7.346581E-1,1.2348354E-1,-1E0,-7.2046477E-1,-5E-2,8.289591E-1,4.340565E-1,2.851909E-1,-3.1503624E-1,6.336412E-2,-3.40423E-1,-3.9345843E-1,-9.986171E-1,2.4941075E-1,-3.273472E-1,4.5670268E-1,-1E0,-5.776057E-1,-1E0,1.8995063E-2,4.7551937E-2,2.5943622E-2,-4.0979325E-3,1.786674E-2,2.0734777E-3,-3.3957723E-3,-2.392951E-2,9.638104E-3,-8.148505E-3,-8.585311E-3,-2.7597269E-2,-2.8694773E-3,-2.8313909E-2,-3.6876395E-2,-5E-2,1.8690076E-2,-7.3151285E-4,-9.3890104E-4,-3.8182113E-2,5E-2,-2.5385154E-2,-3.746156E-2,-5E-2,-1.7336756E-2,-4.672719E-2,-3.0174812E-2,-5E-2],"categories":[],"categories_nodes":[],"categories_segments":[],"categories_sizes":[],"default_left":[0,0,0,0,0,0,0,0,0,0,0,0,0,0,0,0,0,0,0,0,0,0,0,0,0,0,0,0,0,0,0,0,0,0,0,0,0,0,0,0,0,0,0,0,0,0,0,0,0,0,0,0,0,0,0,0,0],"id":9,"left_children":[1,3,5,7,9,11,13,15,17,19,21,23,25,27,-1,29,31,33,35,37,39,41,43,45,47,49,51,53,55,-1,-1,-1,-1,-1,-1,-1,-1,-1,-1,-1,-1,-1,-1,-1,-1,-1,-1,-1,-1,-1,-1,-1,-1,-1,-1,-1,-1],"loss_changes":[3.1080867E3,1.3395946E3,1.446657E3,7.606062E2,1.9128528E2,1.5397523E2,1.2776953E2,1.994148E2,7.993857E2,5.5131447E1,1.19639404E2,9.298122E1,4.492926E1,9.9908936E1,0E0,9.434448E1,2.1665424E2,1.3000043E2,1.280972E2,1.3868929E1,4.2485092E1,3.382643E1,1.2786804E1,4.203482E1,4.814324E1,1.3129826E1,4.7946167E-1,1.0575897E2,2.0567017E0,0E0,0E0,0E0,0E0,0E0,0E0,0E0,0E0,0E0,0E0,0E0,0E0,0E0,0E0,0E0,0E0,0E0,0E0,0E0,0E0,0E0,0E0,0E0,0E0,0E0,0E0,0E0,0E0],"parents":[2147483647,0,0,1,1,2,2,3,3,4,4,5,5,6,6,7,7,8,8,9,9,10,10,11,11,12,12,13,13,15,15,16,16,17,17,18,18,19,19,20,20,21,21,22,22,23,23,24,24,25,25,26,26,27,27,28,28],"right_children":[2,4,6,8,10,12,14,16,18,20,22,24,26,28,-1,30,32,34,36,38,40,42,44,46,48,50,52,54,56,-1,-1,-1,-1,-1,-1,-1,-1,-1,-1,-1,-1,-1,-1,-1,-1,-1,-1,-1,-1,-1,-1,-1,-1,-1,-1,-1,-1],"split_conditions":[6.1330366E0,1E0,2.7272728E1,5.3335238E0,5.2173912E1,7.5687237E0,6.5191474E0,4.8507276E0,6.8181816E1,1.7272728E1,5.521461E0,1E0,3.3333333E0,1E0,-5E-2,3.8095238E1,8.823529E1,5.2173912E1,5.5753174E0,5.7594275E0,5.6051893E0,5.1308846E0,5.658901E0,1.7857143E1,1.5384615E1,7.8664026E0,7.6923075E0,7.037037E1,3.076923E1,1.8995063E-2,4.7551937E-2,2.5943622E-2,-4.0979325E-3,1.786674E-2,2.0734777E-3,-3.3957723E-3,-2.392951E-2,9.638104E-3,-8.148505E-3,-8.585311E-3,-2.7597269E-2,-2.8694773E-3,-2.8313909E-2,-3.6876395E-2,-5E-2,1.8690076E-2,-7.3151285E-4,-9.3890104E-4,-3.8182113E-2,5E-2,-2.5385154E-2,-3.746156E-2,-5E-2,-1.7336756E-2,-4.672719E-2,-3.0174812E-2,-5E-2],"split_indices":[1,0,2,1,2,1,1,1,2,2,1,0,2,0,0,2,2,2,1,1,1,1,1,2,2,1,2,2,2,0,0,0,0,0,0,0,0,0,0,0,0,0,0,0,0,0,0,0,0,0,0,0,0,0,0,0,0],"split_type":[0,0,0,0,0,0,0,0,0,0,0,0,0,0,0,0,0,0,0,0,0,0,0,0,0,0,0,0,0,0,0,0,0,0,0,0,0,0,0,0,0,0,0,0,0,0,0,0,0,0,0,0,0,0,0,0,0],"sum_hessian":[2.54348E4,2.0232725E4,5.2020757E3,1.7237348E4,2.995376E3,1.7586846E3,3.443391E3,6.6748315E3,1.0562517E4,1.6636125E3,1.3317635E3,1.6353665E3,1.23318085E2,1.6469355E3,1.7964557E3,1.726554E3,4.9482773E3,7.3933687E3,3.1691482E3,4.7147675E2,1.1921357E3,5.819769E2,7.497867E2,1.2786558E3,3.567107E2,2.0644497E1,1.02673584E2,1.2863138E3,3.6062164E2,3.6992673E2,1.3566272E3,4.249752E3,6.985252E2,5.7043574E3,1.6890115E3,1.2626979E3,1.9064502E3,3.0007095E2,1.7140578E2,6.641784E2,5.2795734E2,1.9809306E2,3.8388382E2,1.9914424E2,5.5064246E2,8.6889856E2,4.0975723E2,2.0954985E2,1.4716084E2,1.2618032E1,8.026464E0,2.2526722E1,8.0146866E1,7.82292E2,5.0402188E2,1.8443241E1,3.421784E2],"tree_param":{"num_deleted":"0","num_feature":"3","num_nodes":"57","size_leaf_vector":"1"}},{"base_weights":[-1.2698599E-2,1.559963E-1,-6.6833764E-1,2.6090258E-1,-4.5869136E-1,-8.092269E-3,-1E0,5.512452E-1,1.2331551E-1,-1.7090467E-1,-6.573574E-1,7.1170285E-2,-8.62619E-1,-7.345691E-1,-5E-2,1.7151475E-1,6.2725675E-1,3.3457372E-1,-2.36654E-1,6.1605227E-1,-2.2724447E-1,-3.0242038E-1,-9.6596533E-1,1.987966E-1,-4.2692333E-1,2.6672834E-1,-1E0,-5.8468795E-1,-1E0,5.570831E-3,1.727364E-2,3.716695E-2,1.6504666E-2,1.8785924E-2,4.5324313E-3,-2.3953076E-3,-2.5320029E-2,3.2944452E-2,-1.5881471E-2,4.4048955E-3,-1.6073283E-2,-2.3627586E-3,-2.1812735E-2,-4.9993694E-2,-2.7829263E-2,1.8787568E-2,-4.3376503E-3,-8.240958E-3,-4.7686756E-2,3.2546263E-2,-2.4589594E-2,-5E-2,-1.5052507E-2,-1.7607111E-2,-4.6253935E-2,-2.7476272E-2,-5E-2],"categories":[],"categories_nodes":[],"categories_segments":[],"categories_sizes":[],"default_left":[0,0,0,0,0,0,0,0,0,0,0,0,0,0,0,0,0,0,0,0,0,0,0,0,0,0,0,0,0,0,0,0,0,0,0,0,0,0,0,0,0,0,0,0,0,0,0,0,0,0,0,0,0,0,0,0,0],"id":10,"left_children":[1,3,5,7,9,11,13,15,17,19,21,23,25,27,-1,29,31,33,35,37,39,41,43,45,47,49,51,53,55,-1,-1,-1,-1,-1,-1,-1,-1,-1,-1,-1,-1,-1,-1,-1,-1,-1,-1,-1,-1,-1,-1,-1,-1,-1,-1,-1,-1],"loss_changes":[2.8023052E3,1.299594E3,1.3540496E3,6.8760706E2,1.6787396E2,1.3260886E2,1.0753198E2,1.5963928E2,8.8838043E2,5.3401978E1,1.900697E2,1.1398642E2,3.613508E1,9.7157715E1,0E0,9.626259E0,1.5881409E2,7.3847046E1,2.199552E2,3.4300404E0,3.335834E1,2.7631523E1,1.2341675E1,7.2136856E1,5.034909E1,7.6340837E0,1.043335E1,9.452832E1,1.1511841E0,0E0,0E0,0E0,0E0,0E0,0E0,0E0,0E0,0E0,0E0,0E0,0E0,0E0,0E0,0E0,0E0,0E0,0E0,0E0,0E0,0E0,0E0,0E0,0E0,0E0,0E0,0E0,0E0],"parents":[2147483647,0,0,1,1,2,2,3,3,4,4,5,5,6,6,7,7,8,8,9,9,10,10,11,11,12,12,13,13,15,15,16,16,17,17,18,18,19,19,20,20,21,21,22,22,23,23,24,24,25,25,26,26,27,27,28,28],"right_children":[2,4,6,8,10,12,14,16,18,20,22,24,26,28,-1,30,32,34,36,38,40,42,44,46,48,50,52,54,56,-1,-1,-1,-1,-1,-1,-1,-1,-1,-1,-1,-1,-1,-1,-1,-1,-1,-1,-1,-1,-1,-1,-1,-1,-1,-1,-1,-1],"split_conditions":[6.1330366E0,1E0,3.076923E1,5.2574954E0,3.8095238E1,7.5310163E0,6.5191474E0,2.7777779E1,6.0869564E1,7.142857E0,5.52678E0,1E0,3.3333333E0,1E0,-5E-2,5.166689E0,8.214286E1,5.2173912E1,5.6658497E0,6.0991974E0,5.320568E0,5.1406884E0,6.0787883E0,1.7857143E1,6.714777E0,7.8664026E0,2.7272728E1,7.037037E1,6.143828E0,5.570831E-3,1.727364E-2,3.716695E-2,1.6504666E-2,1.8785924E-2,4.5324313E-3,-2.3953076E-3,-2.5320029E-2,3.2944452E-2,-1.5881471E-2,4.4048955E-3,-1.6073283E-2,-2.3627586E-3,-2.1812735E-2,-4.9993694E-2,-2.7829263E-2,1.8787568E-2,-4.3376503E-3,-8.240958E-3,-4.7686756E-2,3.2546263E-2,-2.4589594E-2,-5E-2,-1.5052507E-2,-1.7607111E-2,-4.6253935E-2,-2.7476272E-2,-5E-2],"split_indices":[1,0,2,1,2,1,1,2,2,2,1,0,2,0,0,1,2,2,1,1,1,1,1,2,1,1,2,2,1,0,0,0,0,0,0,0,0,0,0,0,0,0,0,0,0,0,0,0,0,0,0,0,0,0,0,0,0],"split_type":[0,0,0,0,0,0,0,0,0,0,0,0,0,0,0,0,0,0,0,0,0,0,0,0,0,0,0,0,0,0,0,0,0,0,0,0,0,0,0,0,0,0,0,0,0,0,0,0,0,0,0,0,0,0,0,0,0],"sum_hessian":[2.5334682E4,2.0150701E4,5.1839814E3,1.7213514E4,2.9371868E3,1.955941E3,3.2280403E3,5.533487E3,1.1680026E4,1.2002993E3,1.7368875E3,1.7907544E3,1.6518666E2,1.5394768E3,1.6885635E3,9.2345325E2,4.6100337E3,7.3604253E3,4.3196016E3,7.952705E1,1.1207722E3,8.087293E2,9.281581E2,1.4259777E3,3.6477673E2,2.4097578E1,1.4108908E2,1.1973125E3,3.4216428E2,6.875593E2,2.3589394E2,3.3139792E3,1.2960542E3,6.2976167E3,1.0628085E3,2.5420493E3,1.7775522E3,7.631984E1,3.2072005E0,2.5785156E2,8.6292065E2,2.7870682E2,5.300225E2,8.5582825E2,7.232983E1,8.802017E2,5.457759E2,2.4446242E2,1.2031431E2,1.6089804E1,8.007774E0,1.18685555E2,2.2403526E1,7.125513E2,4.8476126E2,9.600457E0,3.325638E2],"tree_param":{"num_deleted":"0","num_feature":"3","num_nodes":"57","size_leaf_vector":"1"}},{"base_weights":[-2.41824E-2,1.7767091E-1,-5.33401E-1,2.7078003E-1,-3.945298E-1,-8.142501E-2,-9.634045E-1,3.7573636E-1,-4.3629535E-2,9.320122E-3,-5.2167004E-1,6.182172E-2,-6.0188544E-1,-6.164957E-1,-5E-2,5.833989E-1,2.8620404E-1,4.2605188E-1,-2.7460825E-1,2.4263628E-1,-9.9088505E-2,-3.199707E-1,-9.35303E-1,1.8549363E-1,-4.1493908E-1,4.0690824E-1,-1E0,-4.7987697E-1,-5E-2,1.1704571E-2,3.8401097E-2,1.8260479E-2,5.3588464E-3,4.2572107E-2,1.5203743E-2,-5.288066E-3,-2.8163994E-2,5E-2,1.0777208E-2,1.4433968E-2,-1.10922335E-2,1.9268611E-2,-1.7358799E-2,-2.550213E-2,-5E-2,1.5569142E-2,-3.0602699E-3,-6.8973885E-3,-3.365193E-2,2.8840963E-2,-3.4245525E-2,-3.8997166E-2,-5E-2,-2.4608353E-3,-2.9358733E-2],"categories":[],"categories_nodes":[],"categories_segments":[],"categories_sizes":[],"default_left":[0,0,0,0,0,0,0,0,0,0,0,0,0,0,0,0,0,0,0,0,0,0,0,0,0,0,0,0,0,0,0,0,0,0,0,0,0,0,0,0,0,0,0,0,0,0,0,0,0,0,0,0,0,0,0],"id":11,"left_children":[1,3,5,7,9,11,13,15,17,19,21,23,25,27,-1,29,31,33,35,37,39,41,43,45,47,49,51,53,-1,-1,-1,-1,-1,-1,-1,-1,-1,-1,-1,-1,-1,-1,-1,-1,-1,-1,-1,-1,-1,-1,-1,-1,-1,-1,-1],"loss_changes":[2.575779E3,9.56204E2,1.3824603E3,5.0935498E2,1.2897906E2,2.5868735E2,2.4005835E2,2.1498596E2,4.1929068E2,1.5261556E1,1.5908942E2,1.605374E2,3.7694034E2,1.1179779E2,0E0,2.2458154E2,1.1435602E2,6.5853455E1,1.2621442E2,4.451332E0,1.967677E1,2.4806091E1,2.7651917E1,6.715069E1,4.000264E1,4.6940266E1,7.6086426E0,6.12471E1,0E0,0E0,0E0,0E0,0E0,0E0,0E0,0E0,0E0,0E0,0E0,0E0,0E0,0E0,0E0,0E0,0E0,0E0,0E0,0E0,0E0,0E0,0E0,0E0,0E0,0E0,0E0],"parents":[2147483647,0,0,1,1,2,2,3,3,4,4,5,5,6,6,7,7,8,8,9,9,10,10,11,11,12,12,13,13,15,15,16,16,17,17,18,18,19,19,20,20,21,21,22,22,23,23,24,24,25,25,26,26,27,27],"right_children":[2,4,6,8,10,12,14,16,18,20,22,24,26,28,-1,30,32,34,36,38,40,42,44,46,48,50,52,54,-1,-1,-1,-1,-1,-1,-1,-1,-1,-1,-1,-1,-1,-1,-1,-1,-1,-1,-1,-1,-1,-1,-1,-1,-1,-1,-1],"split_conditions":[5.9506426E0,1E0,4.1935482E1,7.55102E1,2.3529411E1,6.9127426E0,6.3237615E0,5.220356E0,5.166689E0,1.1111111E1,5.6401324E0,1E0,1E1,1E0,-5E-2,3.6734695E1,5.2173912E1,4.6836734E0,5.6113014E0,5.078294E0,5.250527E0,4.6836734E0,3.5714287E1,2.7272728E1,2E1,7.706313E0,2.0454546E1,5.2173912E1,-5E-2,1.1704571E-2,3.8401097E-2,1.8260479E-2,5.3588464E-3,4.2572107E-2,1.5203743E-2,-5.288066E-3,-2.8163994E-2,5E-2,1.0777208E-2,1.4433968E-2,-1.10922335E-2,1.9268611E-2,-1.7358799E-2,-2.550213E-2,-5E-2,1.5569142E-2,-3.0602699E-3,-6.8973885E-3,-3.365193E-2,2.8840963E-2,-3.4245525E-2,-3.8997166E-2,-5E-2,-2.4608353E-3,-2.9358733E-2],"split_indices":[1,0,2,2,2,1,1,1,1,2,1,0,2,0,0,2,2,1,1,1,1,1,2,2,2,1,2,2,0,0,0,0,0,0,0,0,0,0,0,0,0,0,0,0,0,0,0,0,0,0,0,0,0,0,0],"split_type":[0,0,0,0,0,0,0,0,0,0,0,0,0,0,0,0,0,0,0,0,0,0,0,0,0,0,0,0,0,0,0,0,0,0,0,0,0,0,0,0,0,0,0,0,0,0,0,0,0,0,0,0,0,0,0],"sum_hessian":[2.5057352E4,1.794474E4,7.112611E3,1.5433854E4,2.5108867E3,3.4682878E3,3.6443228E3,1.1571018E4,3.8628362E3,6.014284E2,1.9094583E3,2.7204246E3,7.4786334E2,1.671202E3,1.9731208E3,3.4841992E3,8.086818E3,1.2731392E3,2.589697E3,1.904041E2,4.1102432E2,1.2847505E3,6.2470776E2,2.16058E3,5.598443E2,2.4990123E2,4.9796213E2,1.3250652E3,3.4613675E2,1.2055543E3,2.2786448E3,5.6100405E3,2.4767776E3,2.8237762E2,9.9076154E2,1.6348331E3,9.548639E2,4.1338296E0,1.8627028E2,9.850632E1,3.12518E2,4.7223934E1,1.2375265E3,1.292645E2,4.954433E2,1.430395E3,7.301851E2,2.7077948E2,2.8906485E2,2.1665642E2,3.3244812E1,1.7677278E2,3.2118933E2,2.645801E2,1.0604851E3],"tree_param":{"num_deleted":"0","num_feature":"3","num_nodes":"55","size_leaf_vector":"1"}},{"base_weights":[-2.3688335E-2,1.7452401E-1,-5.014361E-1,2.615797E-1,-3.636876E-1,6.2477857E-2,-8.2902586E-1,3.6119044E-1,-3.738958E-2,-1.9244537E-1,-5.856619E-1,1.8056737E-1,-3.263214E-1,-4.8655644E-1,-1E0,5.735819E-1,2.6758903E-1,3.8343477E-1,-2.4999325E-1,6.813705E-2,-2.9134133E-1,-3.4353536E-1,-9.4380397E-1,2.7524412E-1,-1.5348063E-1,2.4425009E-1,-8.760615E-1,-3.3248478E-1,-1E0,-7.9539305E-1,-5E-2,1.1764548E-2,3.7391648E-2,1.8090349E-2,8.710543E-3,3.766875E-2,1.3809686E-2,-4.659475E-3,-2.512995E-2,9.141378E-3,-1.9547977E-2,1.4275248E-2,-1.7950632E-2,6.274649E-3,-2.1601645E-2,-4.007954E-2,-5E-2,-1.0503535E-2,1.4767793E-2,5.589903E-4,-2.5409643E-2,2.0457912E-2,-4.511295E-2,-3.4845125E-2,-5E-2,2.1274653E-3,-2.748558E-2,-3.748809E-2,-5E-2,-2.0370692E-2,-5E-2],"categories":[],"categories_nodes":[],"categories_segments":[],"categories_sizes":[],"default_left":[0,0,0,0,0,0,0,0,0,0,0,0,0,0,0,0,0,0,0,0,0,0,0,0,0,0,0,0,0,0,0,0,0,0,0,0,0,0,0,0,0,0,0,0,0,0,0,0,0,0,0,0,0,0,0,0,0,0,0,0,0],"id":12,"left_children":[1,3,5,7,9,11,13,15,17,19,21,23,25,27,29,31,33,35,37,39,41,43,45,47,49,51,53,55,57,59,-1,-1,-1,-1,-1,-1,-1,-1,-1,-1,-1,-1,-1,-1,-1,-1,-1,-1,-1,-1,-1,-1,-1,-1,-1,-1,-1,-1,-1,-1,-1],"loss_changes":[2.372729E3,8.298478E2,1.3573357E3,4.5399182E2,9.362558E1,1.2405875E2,4.939817E2,2.271659E2,3.410281E2,3.5933735E1,9.276141E1,6.557891E1,1.976818E2,2.1788806E2,2.3338135E1,2.0595593E2,6.978021E1,5.054898E1,1.0025377E2,2.0301355E1,3.954435E1,2.6703758E1,7.177826E0,1.5824783E1,2.6770924E1,5.89243E1,9.053848E0,1.5538414E2,4.3391724E0,4.644702E1,0E0,0E0,0E0,0E0,0E0,0E0,0E0,0E0,0E0,0E0,0E0,0E0,0E0,0E0,0E0,0E0,0E0,0E0,0E0,0E0,0E0,0E0,0E0,0E0,0E0,0E0,0E0,0E0,0E0,0E0,0E0],"parents":[2147483647,0,0,1,1,2,2,3,3,4,4,5,5,6,6,7,7,8,8,9,9,10,10,11,11,12,12,13,13,14,14,15,15,16,16,17,17,18,18,19,19,20,20,21,21,22,22,23,23,24,24,25,25,26,26,27,27,28,28,29,29],"right_children":[2,4,6,8,10,12,14,16,18,20,22,24,26,28,30,32,34,36,38,40,42,44,46,48,50,52,54,56,58,60,-1,-1,-1,-1,-1,-1,-1,-1,-1,-1,-1,-1,-1,-1,-1,-1,-1,-1,-1,-1,-1,-1,-1,-1,-1,-1,-1,-1,-1,-1,-1],"split_conditions":[5.933129E0,1E0,3E1,7.55102E1,5.5600405E0,6.8655434E0,6.35321E0,5.220356E0,5.166689E0,5.121978E0,5.5E1,1E0,1.1764706E1,1E0,6.5191474E0,3.4615383E1,5.5542507E0,4.6836734E0,9.1860466E1,8.214286E1,1.3333333E1,1.1111111E1,8.125E1,4.347826E0,2E1,7.706313E0,2.0454546E1,5.2173912E1,4.074074E1,5.2173912E1,-5E-2,1.1764548E-2,3.7391648E-2,1.8090349E-2,8.710543E-3,3.766875E-2,1.3809686E-2,-4.659475E-3,-2.512995E-2,9.141378E-3,-1.9547977E-2,1.4275248E-2,-1.7950632E-2,6.274649E-3,-2.1601645E-2,-4.007954E-2,-5E-2,-1.0503535E-2,1.4767793E-2,5.589903E-4,-2.5409643E-2,2.0457912E-2,-4.511295E-2,-3.4845125E-2,-5E-2,2.1274653E-3,-2.748558E-2,-3.748809E-2,-5E-2,-2.0370692E-2,-5E-2],"split_indices":[1,0,2,2,1,1,1,1,1,1,2,0,2,0,1,2,1,1,2,2,2,2,2,2,2,1,2,2,2,2,0,0,0,0,0,0,0,0,0,0,0,0,0,0,0,0,0,0,0,0,0,0,0,0,0,0,0,0,0,0,0],"split_type":[0,0,0,0,0,0,0,0,0,0,0,0,0,0,0,0,0,0,0,0,0,0,0,0,0,0,0,0,0,0,0,0,0,0,0,0,0,0,0,0,0,0,0,0,0,0,0,0,0,0,0,0,0,0,0,0,0,0,0,0,0],"sum_hessian":[2.5054482E4,1.7708184E4,7.346298E3,1.5243124E4,2.4650596E3,2.6997498E3,4.6465483E3,1.1433497E4,3.809627E3,1.3926022E3,1.0724573E3,2.0712017E3,6.285479E2,2.3919487E3,2.2545996E3,3.4958699E3,7.9376274E3,1.2783928E3,2.5312341E3,3.8320386E2,1.0093983E3,6.4103595E2,4.314213E2,1.6139482E3,4.5725342E2,3.0870297E2,3.1984497E2,1.906029E3,4.8591962E2,5.8036084E2,1.6742386E3,1.1893047E3,2.3065652E3,3.949617E3,3.9880103E3,2.8595023E2,9.924426E2,1.5626166E3,9.6861755E2,3.0708926E2,7.61146E1,1.0564407E2,9.037543E2,1.01686966E2,5.39349E2,2.4142636E2,1.8999495E2,6.3845737E1,1.5501025E3,3.1294852E2,1.443049E2,2.704464E2,3.825654E1,1.6208456E2,1.5776042E2,6.993797E2,1.2066494E3,8.426343E1,4.016562E2,2.0342377E2,3.7693707E2],"tree_param":{"num_deleted":"0","num_feature":"3","num_nodes":"61","size_leaf_vector":"1"}},{"base_weights":[-2.169836E-2,1.2895608E-1,-5.99835E-1,2.210832E-1,-4.0693456E-1,-1.3428785E-2,-9.6857816E-1,3.64397E-1,-7.971522E-3,-2.9943344E-1,-7.689153E-1,1.6086529E-1,-3.0111283E-1,-6.28309E-1,-5E-2,6.8971556E-1,2.8717262E-1,2.6807842E-1,-3.6917517E-1,1.17092095E-2,-3.9016742E-1,-4.2064953E-1,-1E0,2.3460785E-1,-6.478661E-1,-5.0707716E-2,-9.508444E-1,-4.8179442E-1,-1E0,1.8561054E-2,3.9296947E-2,1.8137991E-2,-8.998586E-3,1.6148938E-2,4.9739275E-3,-1.3402447E-2,-3.9919883E-2,5E-2,-4.584713E-4,-6.5297014E-3,-2.5058676E-2,-5E-2,-1.917374E-2,-4.0989574E-2,-5E-2,1.5905716E-2,-4.8150807E-3,8.0752745E-3,-4.945071E-2,3.393688E-3,-2.5509844E-2,-2.1726754E-2,-5E-2,-5.390587E-3,-3.1484183E-2,-5E-2,-2.9558634E-2],"categories":[],"categories_nodes":[],"categories_segments":[],"categories_sizes":[],"default_left":[0,0,0,0,0,0,0,0,0,0,0,0,0,0,0,0,0,0,0,0,0,0,0,0,0,0,0,0,0,0,0,0,0,0,0,0,0,0,0,0,0,0,0,0,0,0,0,0,0,0,0,0,0,0,0,0,0],"id":13,"left_children":[1,3,5,7,9,11,13,15,17,19,21,23,25,27,-1,29,31,33,35,37,39,41,43,45,47,49,51,53,55,-1,-1,-1,-1,-1,-1,-1,-1,-1,-1,-1,-1,-1,-1,-1,-1,-1,-1,-1,-1,-1,-1,-1,-1,-1,-1,-1,-1],"loss_changes":[2.1637773E3,9.730474E2,1.1104421E3,5.5205286E2,1.1228137E2,9.9509155E1,2.0684888E2,2.596875E2,6.455625E2,6.2986176E1,5.998938E1,7.3857376E1,1.2176479E2,1.0748413E2,0E0,6.0505737E1,2.953244E2,3.3936005E1,1.2152191E2,1.1148616E1,4.9704254E1,6.045845E0,2.95813E0,3.1348324E1,2.8748833E1,2.9538713E1,1.4733887E1,6.572531E1,9.80011E-1,0E0,0E0,0E0,0E0,0E0,0E0,0E0,0E0,0E0,0E0,0E0,0E0,0E0,0E0,0E0,0E0,0E0,0E0,0E0,0E0,0E0,0E0,0E0,0E0,0E0,0E0,0E0,0E0],"parents":[2147483647,0,0,1,1,2,2,3,3,4,4,5,5,6,6,7,7,8,8,9,9,10,10,11,11,12,12,13,13,15,15,16,16,17,17,18,18,19,19,20,20,21,21,22,22,23,23,24,24,25,25,26,26,27,27,28,28],"right_children":[2,4,6,8,10,12,14,16,18,20,22,24,26,28,-1,30,32,34,36,38,40,42,44,46,48,50,52,54,56,-1,-1,-1,-1,-1,-1,-1,-1,-1,-1,-1,-1,-1,-1,-1,-1,-1,-1,-1,-1,-1,-1,-1,-1,-1,-1,-1,-1],"split_conditions":[6.1330366E0,1E0,3.076923E1,5.5753174E0,7.55102E1,1.7857143E1,6.5191474E0,4.910201E0,5.2173912E1,1.875E1,5.4834127E0,7.5310163E0,6.8921337E0,1E0,-5E-2,3.8095238E1,8.823529E1,4E1,9.1860466E1,4.828314E0,5.364417E0,7.9245285E1,8.518519E1,1E0,4.347826E0,1E0,2.0454546E1,4.736842E1,6.4995365E0,1.8561054E-2,3.9296947E-2,1.8137991E-2,-8.998586E-3,1.6148938E-2,4.9739275E-3,-1.3402447E-2,-3.9919883E-2,5E-2,-4.584713E-4,-6.5297014E-3,-2.5058676E-2,-5E-2,-1.917374E-2,-4.0989574E-2,-5E-2,1.5905716E-2,-4.8150807E-3,8.0752745E-3,-4.945071E-2,3.393688E-3,-2.5509844E-2,-2.1726754E-2,-5E-2,-5.390587E-3,-3.1484183E-2,-5E-2,-2.9558634E-2],"split_indices":[1,0,2,1,2,2,1,1,2,2,1,1,1,0,0,2,2,2,2,1,1,2,2,0,2,0,2,2,1,0,0,0,0,0,0,0,0,0,0,0,0,0,0,0,0,0,0,0,0,0,0,0,0,0,0,0,0],"split_type":[0,0,0,0,0,0,0,0,0,0,0,0,0,0,0,0,0,0,0,0,0,0,0,0,0,0,0,0,0,0,0,0,0,0,0,0,0,0,0,0,0,0,0,0,0,0,0,0,0,0,0,0,0,0,0,0,0],"sum_hessian":[2.484089E4,1.970644E4,5.1344497E3,1.6816104E4,2.890337E3,1.982596E3,3.1518535E3,1.0343712E4,6.4723916E3,2.2299214E3,6.604154E2,1.2348811E3,7.477149E2,1.5260024E3,1.6258512E3,1.98283E3,8.360882E3,3.668782E3,2.8036096E3,5.0365875E2,1.7262627E3,2.859355E2,3.7447992E2,1.1323407E3,1.0254033E2,5.404895E2,2.072254E2,1.1885789E3,3.374236E2,4.6118564E2,1.5216443E3,7.1966387E3,1.1642433E3,2.7668962E3,9.018859E2,2.2703357E3,5.332739E2,8.736837E0,4.949219E2,5.177494E2,1.2085133E3,1.5022967E1,2.7091254E2,1.2088259E2,2.5359732E2,9.0420044E2,2.2814032E2,3.0561045E1,7.197929E1,4.3029462E2,1.10194885E2,4.978029E1,1.5744511E2,3.3731207E2,8.512667E2,3.2657742E2,1.0846167E1],"tree_param":{"num_deleted":"0","num_feature":"3","num_nodes":"57","size_leaf_vector":"1"}},{"base_weights":[-1.0234903E-2,1.4117678E-1,-6.0798246E-1,2.1941663E-1,-3.1315744E-1,2.4369882E-2,-9.537145E-1,5.3046674E-1,1.1787614E-1,-2.1267948E-1,-7.550216E-1,9.215289E-2,-8.6319983E-1,-6.289892E-1,-1E0,1.3667652E-1,6.0428107E-1,2.4476016E-1,-2.5426185E-1,1.6034952E-1,-2.8344527E-1,-4.8621172E-1,-5E-2,1.9559555E-1,-3.123204E-1,5.183605E-1,-1E0,-4.8961538E-1,-1E0,-8.671686E-1,-5E-2,-5E-2,7.3070982E-3,3.440737E-2,1.5030158E-2,1.7370848E-2,7.5686476E-3,-2.8166806E-3,-2.3556573E-2,4.744328E-2,5.648402E-3,-7.234044E-3,-2.643877E-2,-1.0087799E-2,-3.1380974E-2,2.0581018E-2,4.332797E-3,-2.1248478E-3,-4.1962788E-2,4.4911485E-2,-3.4620948E-2,-3.0341214E-2,-5E-2,-1.3253025E-2,-3.8267404E-2,-1.2771936E-2,-5E-2,-5E-2,-7.873543E-3],"categories":[],"categories_nodes":[],"categories_segments":[],"categories_sizes":[],"default_left":[0,0,0,0,0,0,0,0,0,0,0,0,0,0,0,0,0,0,0,0,0,0,0,0,0,0,0,0,0,0,0,0,0,0,0,0,0,0,0,0,0,0,0,0,0,0,0,0,0,0,0,0,0,0,0,0,0,0,0],"id":14,"left_children":[1,3,5,7,9,11,13,15,17,19,21,23,25,27,29,31,33,35,37,39,41,43,-1,45,47,49,51,53,55,57,-1,-1,-1,-1,-1,-1,-1,-1,-1,-1,-1,-1,-1,-1,-1,-1,-1,-1,-1,-1,-1,-1,-1,-1,-1,-1,-1,-1,-1],"loss_changes":[2.258288E3,7.07771E2,1.1025424E3,5.363847E2,1.2971149E2,1.073824E2,2.0772705E2,1.2141101E2,6.0473865E2,6.2994835E1,4.643933E1,6.942811E1,4.9276688E1,1.0253418E2,1.4404297E-2,9.688813E0,8.943225E1,9.150519E1,1.397619E2,1.4123124E1,6.8171936E1,1.2054413E1,0E0,3.1049496E1,4.8026493E1,1.1125118E1,2.5812988E0,7.567963E1,9.612671E0,8.848488E0,0E0,0E0,0E0,0E0,0E0,0E0,0E0,0E0,0E0,0E0,0E0,0E0,0E0,0E0,0E0,0E0,0E0,0E0,0E0,0E0,0E0,0E0,0E0,0E0,0E0,0E0,0E0,0E0,0E0],"parents":[2147483647,0,0,1,1,2,2,3,3,4,4,5,5,6,6,7,7,8,8,9,9,10,10,11,11,12,12,13,13,14,14,15,15,16,16,17,17,18,18,19,19,20,20,21,21,23,23,24,24,25,25,26,26,27,27,28,28,29,29],"right_children":[2,4,6,8,10,12,14,16,18,20,22,24,26,28,30,32,34,36,38,40,42,44,-1,46,48,50,52,54,56,58,-1,-1,-1,-1,-1,-1,-1,-1,-1,-1,-1,-1,-1,-1,-1,-1,-1,-1,-1,-1,-1,-1,-1,-1,-1,-1,-1,-1,-1],"split_conditions":[6.1330366E0,1E0,2.7272728E1,5.158097E0,8.125E1,7.5687237E0,6.5191474E0,2.631579E1,7.3333336E1,5.1752076E0,5.600272E0,1E0,3.3333333E0,1E0,2.9411764E1,8.181818E0,8.68421E1,5.5753174E0,5.5753174E0,4.54152E0,4.6666668E1,8.823529E1,-5E-2,9.090909E0,6.714777E0,1E0,7.6923075E0,6.5E1,3.076923E1,7.448237E0,-5E-2,-5E-2,7.3070982E-3,3.440737E-2,1.5030158E-2,1.7370848E-2,7.5686476E-3,-2.8166806E-3,-2.3556573E-2,4.744328E-2,5.648402E-3,-7.234044E-3,-2.643877E-2,-1.0087799E-2,-3.1380974E-2,2.0581018E-2,4.332797E-3,-2.1248478E-3,-4.1962788E-2,4.4911485E-2,-3.4620948E-2,-3.0341214E-2,-5E-2,-1.3253025E-2,-3.8267404E-2,-1.2771936E-2,-5E-2,-5E-2,-7.873543E-3],"split_indices":[1,0,2,1,2,1,1,2,2,1,1,0,2,0,2,2,2,1,1,1,2,2,0,2,1,0,2,2,2,1,0,0,0,0,0,0,0,0,0,0,0,0,0,0,0,0,0,0,0,0,0,0,0,0,0,0,0,0,0],"split_type":[0,0,0,0,0,0,0,0,0,0,0,0,0,0,0,0,0,0,0,0,0,0,0,0,0,0,0,0,0,0,0,0,0,0,0,0,0,0,0,0,0,0,0,0,0,0,0,0,0,0,0,0,0,0,0,0,0,0,0],"sum_hessian":[2.494987E4,1.990789E4,5.041979E3,1.6983686E4,2.9242043E3,1.7825612E3,3.259418E3,4.1787256E3,1.2804961E4,2.3836533E3,5.405511E2,1.6569197E3,1.25641495E2,1.5661207E3,1.6932974E3,6.6008826E2,3.5186372E3,9.549358E3,3.2556028E3,3.7988626E2,2.003767E3,3.0182858E2,2.387225E2,1.3198811E3,3.3703864E2,2.1836058E1,1.0380544E2,1.2245508E3,3.4156992E2,5.6463654E1,1.6368336E3,2.7373447E0,6.573509E2,2.7561963E3,7.624411E2,4.5476206E3,5.001738E3,1.7027922E3,1.5528105E3,2.0454762E1,3.594315E2,1.280868E3,7.22899E2,1.0102783E2,2.0080077E2,4.4153952E2,8.7834155E2,2.2361472E2,1.13423904E2,1.6817793E1,5.018265E0,2.2167002E1,8.163844E1,6.759901E2,5.4856067E2,1.8143553E1,3.2342636E2,4.21614E1,1.4302256E1],"tree_param":{"num_deleted":"0","num_feature":"3","num_nodes":"59","size_leaf_vector":"1"}},{"base_weights":[-3.0802887E-2,1.0772526E-1,-5.7854897E-1,1.9132766E-1,-3.742927E-1,-7.178162E-2,-9.789506E-1,4.8818585E-1,9.656206E-2,-8.257103E-2,-5.6714046E-1,1.0141252E-1,-4.464106E-1,-6.899751E-1,-5E-2,9.956147E-2,5.620744E-1,2.176702E-1,-2.537799E-1,3.11064E-1,-1.439132E-1,-3.373885E-1,-9.0367097E-1,1.8931894E-1,-2.352618E-1,3.463675E-1,-8.098091E-1,-5.9509E-1,-1E0,2.5291268E-2,2.3352422E-3,3.3192705E-2,1.5526828E-2,1.3317424E-2,2.5426738E-3,-4.0907324E-3,-2.1982392E-2,1.713983E-2,-5E-2,-7.848617E-3,5E-2,-1.2703328E-2,-3.324105E-2,-3.825796E-2,-5E-2,1.5850589E-2,2.069962E-3,-4.09911E-4,-4.4361386E-2,2.4098767E-2,-3.366721E-2,-2.778767E-2,-5E-2,-1.31004555E-2,-3.67441E-2,-5E-2,-3.656705E-2],"categories":[],"categories_nodes":[],"categories_segments":[],"categories_sizes":[],"default_left":[0,0,0,0,0,0,0,0,0,0,0,0,0,0,0,0,0,0,0,0,0,0,0,0,0,0,0,0,0,0,0,0,0,0,0,0,0,0,0,0,0,0,0,0,0,0,0,0,0,0,0,0,0,0,0,0,0],"id":15,"left_children":[1,3,5,7,9,11,13,15,17,19,21,23,25,27,-1,29,31,33,35,37,39,41,43,45,47,49,51,53,55,-1,-1,-1,-1,-1,-1,-1,-1,-1,-1,-1,-1,-1,-1,-1,-1,-1,-1,-1,-1,-1,-1,-1,-1,-1,-1,-1,-1],"loss_changes":[1.8802472E3,7.970844E2,1.01487305E3,4.741275E2,1.6443216E2,1.4336024E2,1.4308887E2,1.1705615E2,5.422139E2,2.8168646E1,1.3577106E2,4.477289E1,2.0151378E2,4.7083557E1,0E0,1.3993677E1,8.752173E1,7.7097565E1,1.0489525E2,8.209784E0,1.6432335E1,2.840915E1,1.8806519E1,2.2633083E1,4.6380478E1,3.0780289E1,2.5985138E1,5.4735535E1,5.2940063E0,0E0,0E0,0E0,0E0,0E0,0E0,0E0,0E0,0E0,0E0,0E0,0E0,0E0,0E0,0E0,0E0,0E0,0E0,0E0,0E0,0E0,0E0,0E0,0E0,0E0,0E0,0E0,0E0],"parents":[2147483647,0,0,1,1,2,2,3,3,4,4,5,5,6,6,7,7,8,8,9,9,10,10,11,11,12,12,13,13,15,15,16,16,17,17,18,18,19,19,20,20,21,21,22,22,23,23,24,24,25,25,26,26,27,27,28,28],"right_children":[2,4,6,8,10,12,14,16,18,20,22,24,26,28,-1,30,32,34,36,38,40,42,44,46,48,50,52,54,56,-1,-1,-1,-1,-1,-1,-1,-1,-1,-1,-1,-1,-1,-1,-1,-1,-1,-1,-1,-1,-1,-1,-1,-1,-1,-1,-1,-1],"split_conditions":[6.1330366E0,1E0,3.5714287E1,5.151363E0,3.6363636E1,6.8655434E0,6.605974E0,2.631579E1,7.3333336E1,8.695652E0,5.6401324E0,1E0,8.333333E0,1E0,-5E-2,1.25E1,8.2608696E1,5.56962E1,5.5753174E0,6.0991974E0,6.1232233E0,8.823529E1,7.9245285E1,1.875E1,2.4E1,7.706313E0,2E1,5.2173912E1,8.571429E1,2.5291268E-2,2.3352422E-3,3.3192705E-2,1.5526828E-2,1.3317424E-2,2.5426738E-3,-4.0907324E-3,-2.1982392E-2,1.713983E-2,-5E-2,-7.848617E-3,5E-2,-1.2703328E-2,-3.324105E-2,-3.825796E-2,-5E-2,1.5850589E-2,2.069962E-3,-4.09911E-4,-4.4361386E-2,2.4098767E-2,-3.366721E-2,-2.778767E-2,-5E-2,-1.31004555E-2,-3.67441E-2,-5E-2,-3.656705E-2],"split_indices":[1,0,2,1,2,1,1,2,2,2,1,0,2,0,0,2,2,2,1,1,1,2,2,2,2,1,2,2,2,0,0,0,0,0,0,0,0,0,0,0,0,0,0,0,0,0,0,0,0,0,0,0,0,0,0,0,0],"split_type":[0,0,0,0,0,0,0,0,0,0,0,0,0,0,0,0,0,0,0,0,0,0,0,0,0,0,0,0,0,0,0,0,0,0,0,0,0,0,0,0,0,0,0,0,0,0,0,0,0,0,0,0,0,0,0,0,0],"sum_hessian":[2.477797E4,1.9777045E4,5.0009253E3,1.6854383E4,2.9226628E3,2.2078035E3,2.793122E3,4.0774395E3,1.2776942E4,1.1637225E3,1.7589403E3,1.5103057E3,6.9749774E2,1.5110026E3,1.2821195E3,6.517649E2,3.4256746E3,9.495027E3,3.2819153E3,1.5634967E2,1.0073728E3,1.0464937E3,7.1244666E2,1.1979547E3,3.1235098E2,2.1924562E2,4.7825214E2,1.1786755E3,3.3232703E2,7.404837E1,5.7771655E2,2.4376787E3,9.8799567E2,7.349729E3,2.1452983E3,1.7054609E3,1.5764543E3,1.541084E2,2.2412686E0,9.9776056E2,9.61226E0,8.3562714E2,2.1086656E2,4.7817758E2,2.3426909E2,6.423221E2,5.5563257E2,2.3241809E2,7.993289E1,1.939767E2,2.5268925E1,2.235746E2,2.5467754E2,3.49293E2,8.2938257E2,2.4612479E2,8.6202255E1],"tree_param":{"num_deleted":"0","num_feature":"3","num_nodes":"57","size_leaf_vector":"1"}},{"base_weights":[-1.1968509E-2,7.905711E-2,-7.981863E-1,1.6574112E-1,-3.9962548E-1,2.0299697E-1,-1E0,3.263062E-1,-1.731797E-2,-2.3682106E-2,-5.501136E-1,3.1433296E-1,-4.684139E-1,-5.707512E-1,-1E0,6.523959E-1,2.6345456E-1,2.3693909E-1,-3.633848E-1,2.299888E-1,-7.523742E-2,-2.870696E-1,-8.2339644E-1,4.2050245E-1,-9.880323E-4,2.91747E-1,-8.652854E-1,-1.7301117E-1,-5E-2,-7.839705E-1,-1E0,6.588883E-3,3.685666E-2,1.6410556E-2,-6.499415E-3,1.4542492E-2,5.134716E-3,-1.2635867E-2,-2.8763458E-2,1.3858179E-2,-3.1237353E-2,2.138868E-2,-5.2945768E-3,-1.0083983E-2,-2.9896421E-2,-3.635597E-2,-5E-2,2.5975564E-2,-7.3117047E-4,1.0950324E-2,-5E-2,3.239601E-2,-1.2729334E-2,-4.9711972E-2,1.8269027E-3,-3.0050096E-3,-3.0096645E-2,-2.0077063E-2,-5E-2,-3.6370814E-2,-5E-2],"categories":[],"categories_nodes":[],"categories_segments":[],"categories_sizes":[],"default_left":[0,0,0,0,0,0,0,0,0,0,0,0,0,0,0,0,0,0,0,0,0,0,0,0,0,0,0,0,0,0,0,0,0,0,0,0,0,0,0,0,0,0,0,0,0,0,0,0,0,0,0,0,0,0,0,0,0,0,0,0,0],"id":16,"left_children":[1,3,5,7,9,11,13,15,17,19,21,23,25,27,29,31,33,35,37,39,41,43,45,47,49,51,53,55,-1,57,59,-1,-1,-1,-1,-1,-1,-1,-1,-1,-1,-1,-1,-1,-1,-1,-1,-1,-1,-1,-1,-1,-1,-1,-1,-1,-1,-1,-1,-1,-1],"loss_changes":[1.7699835E3,9.198257E2,6.6001697E2,5.5165625E2,1.9227795E2,3.9689545E1,7.265454E1,2.0474854E2,7.718227E2,1.2737841E1,1.7424426E2,1.5210449E1,2.3072645E1,8.1846436E1,7.8479004E0,7.1151184E1,2.1366003E2,3.6566254E1,8.696869E1,6.8076134E0,1.2521458E1,3.2749283E1,2.5840637E1,1.4650749E1,2.7505863E1,5.35927E0,5.845028E0,1.1046188E1,0E0,2.5083015E1,2.9541016E0,0E0,0E0,0E0,0E0,0E0,0E0,0E0,0E0,0E0,0E0,0E0,0E0,0E0,0E0,0E0,0E0,0E0,0E0,0E0,0E0,0E0,0E0,0E0,0E0,0E0,0E0,0E0,0E0,0E0,0E0],"parents":[2147483647,0,0,1,1,2,2,3,3,4,4,5,5,6,6,7,7,8,8,9,9,10,10,11,11,12,12,13,13,14,14,15,15,16,16,17,17,18,18,19,19,20,20,21,21,22,22,23,23,24,24,25,25,26,26,27,27,29,29,30,30],"right_children":[2,4,6,8,10,12,14,16,18,20,22,24,26,28,30,32,34,36,38,40,42,44,46,48,50,52,54,56,-1,58,60,-1,-1,-1,-1,-1,-1,-1,-1,-1,-1,-1,-1,-1,-1,-1,-1,-1,-1,-1,-1,-1,-1,-1,-1,-1,-1,-1,-1,-1,-1],"split_conditions":[6.5191474E0,1E0,1.3636364E1,5.5542507E0,2.631579E1,7.5310163E0,2.7272728E1,4.8507276E0,5.2173912E1,8.181818E0,5.6401324E0,1E1,3.3333333E0,7.0023074E0,6.605974E0,2.631579E1,8.823529E1,3.75E1,5.9733853E0,6.3733196E0,4.9960856E0,8.461539E1,7.826087E1,1E0,7.1733193E0,7.8664026E0,1.25E1,1E0,-5E-2,6.0869564E1,2.9411764E1,6.588883E-3,3.685666E-2,1.6410556E-2,-6.499415E-3,1.4542492E-2,5.134716E-3,-1.2635867E-2,-2.8763458E-2,1.3858179E-2,-3.1237353E-2,2.138868E-2,-5.2945768E-3,-1.0083983E-2,-2.9896421E-2,-3.635597E-2,-5E-2,2.5975564E-2,-7.3117047E-4,1.0950324E-2,-5E-2,3.239601E-2,-1.2729334E-2,-4.9711972E-2,1.8269027E-3,-3.0050096E-3,-3.0096645E-2,-2.0077063E-2,-5E-2,-3.6370814E-2,-5E-2],"split_indices":[1,0,2,1,2,1,2,1,2,2,1,2,2,1,1,2,2,2,1,1,1,2,2,0,1,1,2,0,0,2,2,0,0,0,0,0,0,0,0,0,0,0,0,0,0,0,0,0,0,0,0,0,0,0,0,0,0,0,0,0,0],"split_type":[0,0,0,0,0,0,0,0,0,0,0,0,0,0,0,0,0,0,0,0,0,0,0,0,0,0,0,0,0,0,0,0,0,0,0,0,0,0,0,0,0,0,0,0,0,0,0,0,0,0,0,0,0,0,0,0,0,0,0,0,0],"sum_hessian":[2.4730312E4,2.2165021E4,2.5652913E3,1.8767156E4,3.3978657E3,5.279786E2,2.0373127E3,9.99742E3,8.769736E3,9.7166046E2,2.426205E3,4.5333636E2,7.46422E1,3.9874435E2,1.6385684E3,1.6140345E3,8.383385E3,5.0556445E3,3.714092E3,1.6353716E2,8.081233E2,1.2373063E3,1.1888989E3,3.3889563E2,1.14440704E2,2.5693737E1,4.8948463E1,2.2783281E2,1.7091154E2,1.885904E2,1.449978E3,2.2628912E2,1.3877455E3,7.198718E3,1.1846672E3,3.6062576E3,1.4493868E3,2.441228E3,1.272864E3,1.5562369E2,7.9134817E0,4.567505E1,7.6244824E2,9.719654E2,2.6534082E2,8.5783514E2,3.310638E2,2.7591895E2,6.2976707E1,9.571656E1,1.8724146E1,1.5441176E1,1.0252561E1,4.2735172E1,6.2132907E0,1.812579E2,4.65749E1,9.653087E1,9.205952E1,5.2213097E1,1.3977649E3],"tree_param":{"num_deleted":"0","num_feature":"3","num_nodes":"61","size_leaf_vector":"1"}},{"base_weights":[-2.3784827E-2,7.592144E-2,-6.4828545E-1,1.5045232E-1,-3.435573E-1,-4.05212E-2,-1E0,2.997959E-1,-1.9925997E-2,-2.0951663E-1,-6.836086E-1,8.5329995E-2,-3.9035648E-1,-6.6688794E-1,-5E-2,6.32206E-1,2.4503979E-1,1.8808958E-1,-2.8917623E-1,1.4029545E-1,-2.7921402E-1,-2.9509535E-1,-9.569663E-1,1.5762137E-1,-6.054763E-1,-9.223386E-2,-8.475444E-1,-2.5834194E-1,-9.4279003E-1,7.705887E-3,3.5817277E-2,1.5617442E-2,-8.321881E-3,1.1200491E-2,5.1497165E-3,-8.661763E-3,-2.3234544E-2,1.7577494E-2,-1.0058964E-4,-6.1263493E-3,-2.419003E-2,1.39696775E-2,-1.6915599E-2,-4.030459E-2,-5E-2,2.5728276E-2,5.849443E-3,2.2121865E-2,-4.5213375E-2,3.103818E-3,-3.7357304E-2,-4.9165994E-2,-8.384038E-3,-5E-2,-7.793943E-3,-3.8234737E-2,-5E-2],"categories":[],"categories_nodes":[],"categories_segments":[],"categories_sizes":[],"default_left":[0,0,0,0,0,0,0,0,0,0,0,0,0,0,0,0,0,0,0,0,0,0,0,0,0,0,0,0,0,0,0,0,0,0,0,0,0,0,0,0,0,0,0,0,0,0,0,0,0,0,0,0,0,0,0,0,0],"id":17,"left_children":[1,3,5,7,9,11,13,15,17,19,21,23,25,27,-1,29,31,33,35,37,39,41,43,45,47,49,51,53,55,-1,-1,-1,-1,-1,-1,-1,-1,-1,-1,-1,-1,-1,-1,-1,-1,-1,-1,-1,-1,-1,-1,-1,-1,-1,-1,-1,-1],"loss_changes":[1.5212725E3,6.587287E2,7.828926E2,4.5522318E2,1.4475055E2,5.742203E1,7.542651E1,1.7337286E2,4.681478E2,5.5664993E1,9.512152E1,4.8009476E1,4.694995E1,7.739209E1,0E0,5.4102417E1,2.2680109E2,1.439064E1,7.4052795E1,1.1416201E1,6.0937164E1,9.341694E0,4.6252747E0,1.2548399E1,2.8923763E1,2.1266218E1,1.2395134E1,2.4188898E1,5.778473E0,0E0,0E0,0E0,0E0,0E0,0E0,0E0,0E0,0E0,0E0,0E0,0E0,0E0,0E0,0E0,0E0,0E0,0E0,0E0,0E0,0E0,0E0,0E0,0E0,0E0,0E0,0E0,0E0],"parents":[2147483647,0,0,1,1,2,2,3,3,4,4,5,5,6,6,7,7,8,8,9,9,10,10,11,11,12,12,13,13,15,15,16,16,17,17,18,18,19,19,20,20,21,21,22,22,23,23,24,24,25,25,26,26,27,27,28,28],"right_children":[2,4,6,8,10,12,14,16,18,20,22,24,26,28,-1,30,32,34,36,38,40,42,44,46,48,50,52,54,56,-1,-1,-1,-1,-1,-1,-1,-1,-1,-1,-1,-1,-1,-1,-1,-1,-1,-1,-1,-1,-1,-1,-1,-1,-1,-1,-1,-1],"split_conditions":[6.3653245E0,1E0,2.9411764E1,5.532071E0,6.8181816E1,2.0454546E1,6.605974E0,4.805386E0,5.2173912E1,1.3636364E1,5.4985332E0,7.5687237E0,6.8921337E0,5.3846153E1,-5E-2,3.0434782E1,8.823529E1,3.75E1,8.125E1,8.181818E0,5.6756115E0,4.7463803E0,7.9245285E1,6.410723E0,3.3333333E0,1E0,7.8664026E0,6.388001E0,7.037037E1,7.705887E-3,3.5817277E-2,1.5617442E-2,-8.321881E-3,1.1200491E-2,5.1497165E-3,-8.661763E-3,-2.3234544E-2,1.7577494E-2,-1.0058964E-4,-6.1263493E-3,-2.419003E-2,1.39696775E-2,-1.6915599E-2,-4.030459E-2,-5E-2,2.5728276E-2,5.849443E-3,2.2121865E-2,-4.5213375E-2,3.103818E-3,-3.7357304E-2,-4.9165994E-2,-8.384038E-3,-5E-2,-7.793943E-3,-3.8234737E-2,-5E-2],"split_indices":[1,0,2,1,2,2,1,1,2,2,1,1,1,2,0,2,2,2,2,2,1,1,2,1,2,0,1,1,2,0,0,0,0,0,0,0,0,0,0,0,0,0,0,0,0,0,0,0,0,0,0,0,0,0,0,0,0],"split_type":[0,0,0,0,0,0,0,0,0,0,0,0,0,0,0,0,0,0,0,0,0,0,0,0,0,0,0,0,0,0,0,0,0,0,0,0,0,0,0,0,0,0,0,0,0,0,0,0,0,0,0,0,0,0,0,0,0],"sum_hessian":[2.4429795E4,2.1067145E4,3.362651E3,1.7889303E4,3.1778406E3,1.3024838E3,2.0601672E3,9.532723E3,8.356581E3,2.2805247E3,8.9731604E2,9.584449E2,3.4403885E2,6.8775574E2,1.3724115E3,1.3467013E3,8.186021E3,4.714548E3,3.642033E3,3.787185E2,1.9018062E3,3.714572E2,5.258588E2,8.683462E2,9.00987E1,2.0897342E2,1.3506543E2,2.78016E2,4.0973978E2,2.0196272E2,1.1447385E3,7.0354155E3,1.1506052E3,3.314011E3,1.400537E3,2.19443E3,1.447603E3,1.5184096E2,2.2687756E2,1.0778842E3,8.23922E2,2.5605974E1,3.4585123E2,1.745569E2,3.5130194E2,8.755331E1,7.8079285E2,1.9883387E1,7.021532E1,1.6985698E2,3.9116436E1,1.122097E2,2.2855738E1,2.8274452E1,2.4974153E2,1.4570439E2,2.6403537E2],"tree_param":{"num_deleted":"0","num_feature":"3","num_nodes":"57","size_leaf_vector":"1"}},{"base_weights":[-1.4362732E-2,1.5389822E-1,-3.6359966E-1,2.2318201E-1,-2.8281373E-1,-1.6059894E-2,-7.13438E-1,2.7802032E-1,-1.12724446E-1,1.095147E-1,-3.6482707E-1,1.0262598E-1,-4.0261778E-1,-4.5640385E-1,-1E0,4.736545E-1,2.0359765E-1,2.3835836E-1,-3.3350575E-1,5.1751304E-1,5.9268285E-2,-2.7210796E-1,-6.1463E-1,1.629695E-1,-1.2674981E-1,1.8961504E-1,-7.5101006E-1,-3.4487465E-1,-9.2269903E-1,-7.706117E-1,-1E0,1.1089265E-3,2.9061297E-2,1.3559124E-2,1.9751014E-3,2.7518049E-2,4.9106907E-3,-7.4990713E-3,-2.2407295E-2,1.5977036E-2,5E-2,1.5691316E-2,-2.2690364E-3,-1.0625081E-2,-2.630276E-2,-1.5768584E-2,-4.0348746E-2,9.848127E-3,-5.44081E-3,1.8860664E-3,-2.3764232E-2,1.8453218E-2,-4.086208E-2,-2.6066864E-2,-5E-2,-9.973585E-3,-2.8509496E-2,-1.6176632E-2,-4.7326814E-2,-1.6768388E-2,-4.2258862E-2,-3.5960477E-2,-5E-2],"categories":[],"categories_nodes":[],"categories_segments":[],"categories_sizes":[],"default_left":[0,0,0,0,0,0,0,0,0,0,0,0,0,0,0,0,0,0,0,0,0,0,0,0,0,0,0,0,0,0,0,0,0,0,0,0,0,0,0,0,0,0,0,0,0,0,0,0,0,0,0,0,0,0,0,0,0,0,0,0,0,0,0],"id":18,"left_children":[1,3,5,7,9,11,13,15,17,19,21,23,25,27,29,31,33,35,37,39,41,43,45,47,49,51,53,55,57,59,61,-1,-1,-1,-1,-1,-1,-1,-1,-1,-1,-1,-1,-1,-1,-1,-1,-1,-1,-1,-1,-1,-1,-1,-1,-1,-1,-1,-1,-1,-1,-1,-1],"loss_changes":[1.4422195E3,5.012131E2,9.702168E2,2.6336646E2,7.3026764E1,1.8374832E2,3.4148035E2,1.788371E2,1.5564848E2,8.025294E0,4.3292725E1,4.243539E1,1.9426001E2,1.1742993E2,3.2678833E1,1.6443445E2,9.874512E1,3.385235E1,2.5865341E1,4.955738E0,9.364779E0,2.0629509E1,2.8936554E1,2.2439789E1,3.6637245E1,6.3405968E1,3.512094E1,5.9798096E1,5.92688E0,2.0488922E1,2.5305176E-1,0E0,0E0,0E0,0E0,0E0,0E0,0E0,0E0,0E0,0E0,0E0,0E0,0E0,0E0,0E0,0E0,0E0,0E0,0E0,0E0,0E0,0E0,0E0,0E0,0E0,0E0,0E0,0E0,0E0,0E0,0E0,0E0],"parents":[2147483647,0,0,1,1,2,2,3,3,4,4,5,5,6,6,7,7,8,8,9,9,10,10,11,11,12,12,13,13,14,14,15,15,16,16,17,17,18,18,19,19,20,20,21,21,22,22,23,23,24,24,25,25,26,26,27,27,28,28,29,29,30,30],"right_children":[2,4,6,8,10,12,14,16,18,20,22,24,26,28,30,32,34,36,38,40,42,44,46,48,50,52,54,56,58,60,62,-1,-1,-1,-1,-1,-1,-1,-1,-1,-1,-1,-1,-1,-1,-1,-1,-1,-1,-1,-1,-1,-1,-1,-1,-1,-1,-1,-1,-1,-1,-1,-1],"split_conditions":[5.8655233E0,1E0,4.1935482E1,8.823529E1,1.875E1,6.738942E0,6.3365307E0,5.158097E0,5.201256E0,5.1406884E0,5.6401324E0,1E0,1.1764706E1,1E0,6.605974E0,2.631579E1,6.153846E1,4.7463803E0,5.428614E0,5.108971E0,8.695652E0,8.461539E1,4.4444443E1,6.5191474E0,2.631579E1,1E0,2.631579E1,7.55102E1,4.4444443E1,5E1,4.2857143E1,1.1089265E-3,2.9061297E-2,1.3559124E-2,1.9751014E-3,2.7518049E-2,4.9106907E-3,-7.4990713E-3,-2.2407295E-2,1.5977036E-2,5E-2,1.5691316E-2,-2.2690364E-3,-1.0625081E-2,-2.630276E-2,-1.5768584E-2,-4.0348746E-2,9.848127E-3,-5.44081E-3,1.8860664E-3,-2.3764232E-2,1.8453218E-2,-4.086208E-2,-2.6066864E-2,-5E-2,-9.973585E-3,-2.8509496E-2,-1.6176632E-2,-4.7326814E-2,-1.6768388E-2,-4.2258862E-2,-3.5960477E-2,-5E-2],"split_indices":[1,0,2,2,2,1,1,1,1,1,1,0,2,0,1,2,2,1,1,1,2,2,2,1,2,0,2,2,2,2,2,0,0,0,0,0,0,0,0,0,0,0,0,0,0,0,0,0,0,0,0,0,0,0,0,0,0,0,0,0,0,0,0],"split_type":[0,0,0,0,0,0,0,0,0,0,0,0,0,0,0,0,0,0,0,0,0,0,0,0,0,0,0,0,0,0,0,0,0,0,0,0,0,0,0,0,0,0,0,0,0,0,0,0,0,0,0,0,0,0,0,0,0,0,0,0,0,0,0],"sum_hessian":[2.4541064E4,1.656208E4,7.9789844E3,1.4294729E4,2.267351E3,4.0031663E3,3.9758184E3,1.2288711E4,2.0060176E3,3.9196524E2,1.8753857E3,3.0633518E3,9.398144E2,2.2631458E3,1.7126725E3,3.385063E3,8.903647E3,7.7443854E2,1.2315791E3,4.1959194E1,3.5000604E2,1.3692515E3,5.0613428E2,2.4255378E3,6.3781396E2,3.482608E2,5.915536E2,1.8277268E3,4.354189E2,6.3905237E2,1.0736202E3,6.515829E2,2.73348E3,6.3058516E3,2.5977961E3,2.3913258E2,5.3530597E2,4.7441275E2,7.571663E2,3.3461143E1,8.498049E0,1.01386116E2,2.4861993E2,1.1104452E3,2.5880627E2,1.9906313E2,3.0707117E2,2.1561387E3,2.693993E2,4.339349E2,2.0387907E2,2.9611795E2,5.2142853E1,3.1698856E2,2.74565E2,1.1120024E3,7.157244E2,1.7217482E1,4.1820142E2,9.427293E1,5.447794E2,1.4892988E1,1.0587272E3],"tree_param":{"num_deleted":"0","num_feature":"3","num_nodes":"63","size_leaf_vector":"1"}},{"base_weights":[-2.0542374E-2,8.908726E-2,-5.4022443E-1,1.560334E-1,-3.0260223E-1,5.4602217E-2,-8.757816E-1,2.3848253E-1,-9.931836E-2,-1.8208927E-1,-6.1061543E-1,1.2703224E-1,-7.340375E-1,-5.869735E-1,-1E0,3.506512E-1,1.0931432E-1,2.7200237E-1,-3.1297985E-1,3.0621466E-1,-2.2253564E-1,-3.5846218E-1,-8.992674E-1,2.2462085E-1,-2.5626987E-1,2.4345203E-1,-9.5513505E-1,-4.6678877E-1,-1E0,-7.6589864E-1,-5E-2,8.396888E-4,2.1435043E-2,9.978493E-3,-5.863622E-3,3.300858E-2,9.373523E-3,-8.525333E-3,-2.1536816E-2,2.4422148E-2,7.8070047E-3,-6.2479237E-3,-1.8707557E-2,-8.938724E-3,-2.5999267E-2,-3.7258815E-2,-5E-2,1.4606458E-2,-2.8306958E-3,-4.7418517E-3,-3.6282256E-2,2.4540875E-2,-3.248031E-2,-3.4241155E-2,-5E-2,-1.2608669E-2,-3.4968793E-2,-5E-2,-2.8143376E-2,-1.6911272E-2,-5E-2],"categories":[],"categories_nodes":[],"categories_segments":[],"categories_sizes":[],"default_left":[0,0,0,0,0,0,0,0,0,0,0,0,0,0,0,0,0,0,0,0,0,0,0,0,0,0,0,0,0,0,0,0,0,0,0,0,0,0,0,0,0,0,0,0,0,0,0,0,0,0,0,0,0,0,0,0,0,0,0,0,0],"id":19,"left_children":[1,3,5,7,9,11,13,15,17,19,21,23,25,27,29,31,33,35,37,39,41,43,45,47,49,51,53,55,57,59,-1,-1,-1,-1,-1,-1,-1,-1,-1,-1,-1,-1,-1,-1,-1,-1,-1,-1,-1,-1,-1,-1,-1,-1,-1,-1,-1,-1,-1,-1,-1],"loss_changes":[1.3815706E3,5.25157E2,8.432383E2,3.6010336E2,1.0840485E2,8.717732E1,1.8401099E2,1.8728363E2,3.3132904E2,4.1596733E1,5.9485992E1,5.231971E1,2.7979591E1,6.917551E1,3.4387207E0,1.8029358E2,1.2294346E2,4.9931534E1,4.4397095E1,4.333995E0,2.8690048E1,1.268475E1,9.294861E0,2.1169727E1,2.145041E1,5.726716E0,3.0706177E0,5.19433E1,4.7622375E0,8.482883E0,0E0,0E0,0E0,0E0,0E0,0E0,0E0,0E0,0E0,0E0,0E0,0E0,0E0,0E0,0E0,0E0,0E0,0E0,0E0,0E0,0E0,0E0,0E0,0E0,0E0,0E0,0E0,0E0,0E0,0E0,0E0],"parents":[2147483647,0,0,1,1,2,2,3,3,4,4,5,5,6,6,7,7,8,8,9,9,10,10,11,11,12,12,13,13,14,14,15,15,16,16,17,17,18,18,19,19,20,20,21,21,22,22,23,23,24,24,25,25,26,26,27,27,28,28,29,29],"right_children":[2,4,6,8,10,12,14,16,18,20,22,24,26,28,30,32,34,36,38,40,42,44,46,48,50,52,54,56,58,60,-1,-1,-1,-1,-1,-1,-1,-1,-1,-1,-1,-1,-1,-1,-1,-1,-1,-1,-1,-1,-1,-1,-1,-1,-1,-1,-1,-1,-1,-1,-1],"split_conditions":[6.2232375E0,1E0,2.631579E1,7.55102E1,6.923077E1,7.5310163E0,6.605974E0,5.532071E0,5.250527E0,8.695652E0,5.5953307E0,1E0,3.3333333E0,1E0,3E1,2.2222221E1,5.2173912E1,4.6836734E0,5.5753174E0,5.7776523E0,5.6796036E0,5.2999825E0,5.8837867E0,2.0454546E1,1.875E1,1E0,7.706313E0,6.0869564E1,6.5393453E0,6.8655434E0,-5E-2,8.396888E-4,2.1435043E-2,9.978493E-3,-5.863622E-3,3.300858E-2,9.373523E-3,-8.525333E-3,-2.1536816E-2,2.4422148E-2,7.8070047E-3,-6.2479237E-3,-1.8707557E-2,-8.938724E-3,-2.5999267E-2,-3.7258815E-2,-5E-2,1.4606458E-2,-2.8306958E-3,-4.7418517E-3,-3.6282256E-2,2.4540875E-2,-3.248031E-2,-3.4241155E-2,-5E-2,-1.2608669E-2,-3.4968793E-2,-5E-2,-2.8143376E-2,-1.6911272E-2,-5E-2],"split_indices":[1,0,2,2,2,1,1,1,1,2,1,0,2,0,2,2,2,1,1,1,1,1,1,2,2,0,1,2,1,1,0,0,0,0,0,0,0,0,0,0,0,0,0,0,0,0,0,0,0,0,0,0,0,0,0,0,0,0,0,0,0],"split_type":[0,0,0,0,0,0,0,0,0,0,0,0,0,0,0,0,0,0,0,0,0,0,0,0,0,0,0,0,0,0,0,0,0,0,0,0,0,0,0,0,0,0,0,0,0,0,0,0,0,0,0,0,0,0,0,0,0,0,0,0,0],"sum_hessian":[2.4247908E4,2.002447E4,4.2234375E3,1.7102053E4,2.9224185E3,1.5235494E3,2.6998884E3,1.2927899E4,4.1741533E3,2.1017002E3,8.207181E2,1.3961625E3,1.2738701E2,1.3278276E3,1.3720607E3,6.918346E3,6.0095527E3,1.5244863E3,2.6496667E3,1.6026541E2,1.9414348E3,4.392506E2,3.814675E2,1.1131649E3,2.8299753E2,2.347981E1,1.03907196E2,1.0431315E3,2.846961E2,7.9996506E1,1.2920642E3,1.311144E3,5.607202E3,4.29776E3,1.7117928E3,2.7140216E2,1.2530842E3,1.2001079E3,1.449559E3,7.136079E1,8.8904625E1,1.1823308E3,7.59104E2,2.0893071E2,2.3031989E2,2.1730685E2,1.6416064E2,8.976516E2,2.1551328E2,2.1146881E2,7.15287E1,1.8739595E1,4.740215E0,4.210373E1,6.180347E1,5.4360986E2,4.995216E2,2.5554079E2,2.915531E1,3.0788832E1,4.9207672E1],"tree_param":{"num_deleted":"0","num_feature":"3","num_nodes":"61","size_leaf_vector":"1"}},{"base_weights":[-1.6858906E-2,1.1882534E-1,-4.1377065E-1,1.8162695E-1,-2.679693E-1,-3.7647303E-2,-7.458859E-1,4.4164792E-1,1.1077206E-1,-1.6151403E-1,-6.632228E-1,3.6596358E-2,-5.316905E-1,-5.4138803E-1,-1E0,4.1253783E-2,5.1667976E-1,1.9122025E-1,-1.879063E-1,2.840126E-3,-2.514548E-1,-4.586965E-1,-9.832666E-1,2.0158437E-1,-1.4314647E-1,1.1920661E-1,-7.9946774E-1,-2.717955E-1,-6.6262823E-1,-5.563919E-1,-1E0,-5E-2,3.162338E-3,3.697238E-2,2.0145254E-2,-2.649525E-3,1.1093644E-2,5.815181E-4,-1.6229877E-2,2.5003841E-2,-1.9131827E-3,-6.6900672E-3,-2.5800383E-2,-2.6056334E-2,3.2225635E-3,-5E-2,5.06113E-4,1.3870704E-2,-3.7788579E-3,-3.366895E-3,-4.798566E-2,1.5579029E-2,-3.852431E-2,-5E-2,-3.1095928E-2,1.1185587E-2,-1.9057905E-2,-2.8601844E-2,-4.3799415E-2,4.0161204E-2,-4.906549E-2,-4.6137154E-2,-5E-2],"categories":[],"categories_nodes":[],"categories_segments":[],"categories_sizes":[],"default_left":[0,0,0,0,0,0,0,0,0,0,0,0,0,0,0,0,0,0,0,0,0,0,0,0,0,0,0,0,0,0,0,0,0,0,0,0,0,0,0,0,0,0,0,0,0,0,0,0,0,0,0,0,0,0,0,0,0,0,0,0,0,0,0],"id":20,"left_children":[1,3,5,7,9,11,13,15,17,19,21,23,25,27,29,31,33,35,37,39,41,43,45,47,49,51,53,55,57,59,61,-1,-1,-1,-1,-1,-1,-1,-1,-1,-1,-1,-1,-1,-1,-1,-1,-1,-1,-1,-1,-1,-1,-1,-1,-1,-1,-1,-1,-1,-1,-1,-1],"loss_changes":[1.3039498E3,4.3836444E2,7.704983E2,2.85966E2,1.0596384E2,1.061548E2,2.4348523E2,9.9841675E1,2.9320706E2,2.9377476E1,3.454074E1,7.465629E1,6.599561E1,7.068652E1,6.1048584E0,1.3128836E1,7.06535E1,7.1969086E1,7.0632484E1,1.4405165E1,3.990982E1,1.0746841E1,3.5440521E0,2.7606133E1,7.4526566E1,1.9251545E1,1.1585861E1,3.6624187E1,2.839264E1,2.1646908E1,4.2358398E-1,0E0,0E0,0E0,0E0,0E0,0E0,0E0,0E0,0E0,0E0,0E0,0E0,0E0,0E0,0E0,0E0,0E0,0E0,0E0,0E0,0E0,0E0,0E0,0E0,0E0,0E0,0E0,0E0,0E0,0E0,0E0,0E0],"parents":[2147483647,0,0,1,1,2,2,3,3,4,4,5,5,6,6,7,7,8,8,9,9,10,10,11,11,12,12,13,13,14,14,15,15,16,16,17,17,18,18,19,19,20,20,21,21,22,22,23,23,24,24,25,25,26,26,27,27,28,28,29,29,30,30],"right_children":[2,4,6,8,10,12,14,16,18,20,22,24,26,28,30,32,34,36,38,40,42,44,46,48,50,52,54,56,58,60,62,-1,-1,-1,-1,-1,-1,-1,-1,-1,-1,-1,-1,-1,-1,-1,-1,-1,-1,-1,-1,-1,-1,-1,-1,-1,-1,-1,-1,-1,-1,-1,-1],"split_conditions":[5.988126E0,1E0,3.8095238E1,5.090678E0,7.55102E1,7.1733193E0,6.605974E0,2.631579E1,7.826087E1,2.631579E1,5.600272E0,1.875E1,8.333333E0,5.5E1,4E1,4.337291E0,4.7463803E0,1.3333333E1,5.422009E0,7.142857E0,5.6658497E0,5.547778E0,5.9801507E0,1E0,6.8921337E0,7.8664026E0,7.448237E0,6.0485535E0,6.346805E0,6.738942E0,5.2941177E1,-5E-2,3.162338E-3,3.697238E-2,2.0145254E-2,-2.649525E-3,1.1093644E-2,5.815181E-4,-1.6229877E-2,2.5003841E-2,-1.9131827E-3,-6.6900672E-3,-2.5800383E-2,-2.6056334E-2,3.2225635E-3,-5E-2,5.06113E-4,1.3870704E-2,-3.7788579E-3,-3.366895E-3,-4.798566E-2,1.5579029E-2,-3.852431E-2,-5E-2,-3.1095928E-2,1.1185587E-2,-1.9057905E-2,-2.8601844E-2,-4.3799415E-2,4.0161204E-2,-4.906549E-2,-4.6137154E-2,-5E-2],"split_indices":[1,0,2,1,2,1,1,2,2,2,1,2,2,2,2,1,1,2,1,2,1,1,1,0,1,1,1,1,1,1,2,0,0,0,0,0,0,0,0,0,0,0,0,0,0,0,0,0,0,0,0,0,0,0,0,0,0,0,0,0,0,0,0],"split_type":[0,0,0,0,0,0,0,0,0,0,0,0,0,0,0,0,0,0,0,0,0,0,0,0,0,0,0,0,0,0,0,0,0,0,0,0,0,0,0,0,0,0,0,0,0,0,0,0,0,0,0,0,0,0,0,0,0,0,0,0,0,0,0],"sum_hessian":[2.4210469E4,1.8043127E4,6.1673413E3,1.552324E4,2.5198882E3,2.8925815E3,3.2747595E3,3.3230789E3,1.2200161E4,1.9863143E3,5.335738E2,2.515486E3,3.770955E2,2.1671416E3,1.1076179E3,5.246938E2,2.7983853E3,9.611649E3,2.5885117E3,7.0287573E2,1.2834386E3,3.2702155E2,2.0655226E2,1.3115123E3,1.2039738E3,1.10078354E2,2.6701712E2,6.732747E2,1.493867E3,3.510488E1,1.0725131E3,9.024812E0,5.1566895E2,9.441892E2,1.8541959E3,1.0718049E3,8.539845E3,1.0527144E3,1.5357972E3,5.2813927E1,6.5006177E2,8.8940375E2,3.9403485E2,2.9216028E2,3.4861282E1,2.030419E2,3.5103574E0,1.029772E3,2.8174033E2,1.1026849E3,1.012888E2,9.1042465E1,1.9035885E1,1.0457252E2,1.6244461E2,1.2154137E2,5.5173334E2,1.0512103E3,4.4265662E2,8.146881E0,2.6958E1,2.3748817E2,8.3502484E2],"tree_param":{"num_deleted":"0","num_feature":"3","num_nodes":"63","size_leaf_vector":"1"}},{"base_weights":[-1.598194E-2,7.606317E-2,-5.8698696E-1,1.410854E-1,-2.996937E-1,-2.583788E-2,-9.1279626E-1,2.1272711E-1,-1.06194556E-1,1.2314301E-2,-4.5301357E-1,4.9827263E-2,-8.451514E-1,-5.9210753E-1,-1E0,5.912134E-1,1.811417E-1,2.113759E-1,-3.3346447E-1,1.9046082E-1,-6.1280604E-2,-2.5210685E-1,-7.241126E-1,1.5669928E-1,-3.8023826E-1,2.4401745E-1,-1E0,-2.2675516E-1,-8.6245036E-1,-4.2012846E-1,-1E0,9.542347E-3,3.5103988E-2,1.2863087E-2,5.3577567E-3,2.8052697E-2,7.2331512E-3,-1.1453874E-2,-2.8336395E-2,8.102639E-3,5E-2,-4.9175317E-3,2.0966135E-2,7.0401595E-4,-1.6555874E-2,-1.7540973E-2,-4.3800186E-2,1.4871341E-2,-1.54283E-4,-9.313422E-3,-4.39562E-2,3.6173284E-2,-2.217738E-2,-5E-2,-2.0220332E-2,-4.030345E-2,-4.620996E-3,-3.302017E-2,-5E-2,5E-2,-5E-2,-4.5891497E-2,-5E-2],"categories":[],"categories_nodes":[],"categories_segments":[],"categories_sizes":[],"default_left":[0,0,0,0,0,0,0,0,0,0,0,0,0,0,0,0,0,0,0,0,0,0,0,0,0,0,0,0,0,0,0,0,0,0,0,0,0,0,0,0,0,0,0,0,0,0,0,0,0,0,0,0,0,0,0,0,0,0,0,0,0,0,0],"id":21,"left_children":[1,3,5,7,9,11,13,15,17,19,21,23,25,27,29,31,33,35,37,39,41,43,45,47,49,51,53,55,57,59,61,-1,-1,-1,-1,-1,-1,-1,-1,-1,-1,-1,-1,-1,-1,-1,-1,-1,-1,-1,-1,-1,-1,-1,-1,-1,-1,-1,-1,-1,-1,-1,-1],"loss_changes":[1.2689929E3,5.0806616E2,6.1277E2,3.140538E2,1.4675137E2,7.643301E1,1.3476025E2,1.6420532E2,2.8751544E2,1.3275966E1,1.1184793E2,5.195095E1,2.8388618E1,8.997247E1,9.8535156E-1,4.6837677E1,7.142609E1,3.868772E1,5.6404022E1,7.5518007E0,1.2810037E1,2.4883537E1,4.930374E1,2.0350824E1,2.1610119E1,7.113385E0,1.2601471E0,3.0244204E1,1.8225647E1,6.8448887E0,5.9448242E-2,0E0,0E0,0E0,0E0,0E0,0E0,0E0,0E0,0E0,0E0,0E0,0E0,0E0,0E0,0E0,0E0,0E0,0E0,0E0,0E0,0E0,0E0,0E0,0E0,0E0,0E0,0E0,0E0,0E0,0E0,0E0,0E0],"parents":[2147483647,0,0,1,1,2,2,3,3,4,4,5,5,6,6,7,7,8,8,9,9,10,10,11,11,12,12,13,13,14,14,15,15,16,16,17,17,18,18,19,19,20,20,21,21,22,22,23,23,24,24,25,25,26,26,27,27,28,28,29,29,30,30],"right_children":[2,4,6,8,10,12,14,16,18,20,22,24,26,28,30,32,34,36,38,40,42,44,46,48,50,52,54,56,58,60,62,-1,-1,-1,-1,-1,-1,-1,-1,-1,-1,-1,-1,-1,-1,-1,-1,-1,-1,-1,-1,-1,-1,-1,-1,-1,-1,-1,-1,-1,-1,-1,-1],"split_conditions":[6.346805E0,1E0,2.631579E1,7.826087E1,2.9411764E1,7.5687237E0,6.6802273E0,4.8507276E0,5.320568E0,1.1764706E1,5.658901E0,1E0,3.3333333E0,5.2941177E1,2.6666666E1,2.631579E1,5.5542507E0,4.6836734E0,5.8343234E0,6.3237615E0,2.8571428E1,5.0998664E0,4.736842E1,1.3333333E1,6.9387693E0,7.8664026E0,2.5E1,6.388001E0,6.452049E0,6.8655434E0,6.7749853E0,9.542347E-3,3.5103988E-2,1.2863087E-2,5.3577567E-3,2.8052697E-2,7.2331512E-3,-1.1453874E-2,-2.8336395E-2,8.102639E-3,5E-2,-4.9175317E-3,2.0966135E-2,7.0401595E-4,-1.6555874E-2,-1.7540973E-2,-4.3800186E-2,1.4871341E-2,-1.54283E-4,-9.313422E-3,-4.39562E-2,3.6173284E-2,-2.217738E-2,-5E-2,-2.0220332E-2,-4.030345E-2,-4.620996E-3,-3.302017E-2,-5E-2,5E-2,-5E-2,-4.5891497E-2,-5E-2],"split_indices":[1,0,2,2,2,1,1,1,1,2,1,0,2,2,2,2,1,1,1,1,2,1,2,2,1,1,2,1,1,1,1,0,0,0,0,0,0,0,0,0,0,0,0,0,0,0,0,0,0,0,0,0,0,0,0,0,0,0,0,0,0,0,0],"split_type":[0,0,0,0,0,0,0,0,0,0,0,0,0,0,0,0,0,0,0,0,0,0,0,0,0,0,0,0,0,0,0,0,0,0,0,0,0,0,0,0,0,0,0,0,0,0,0,0,0,0,0,0,0,0,0,0,0,0,0,0,0,0,0],"sum_hessian":[2.414267E4,2.0791914E4,3.350757E3,1.7725293E4,3.0666199E3,1.2312408E3,2.119516E3,1.3743639E4,3.9816543E3,1.010717E3,2.0559028E3,1.1280066E3,1.0323434E2,9.119058E2,1.2076104E3,1.057227E3,1.2686412E4,1.6609012E3,2.320753E3,2.9501205E2,7.1570496E2,1.1819272E3,8.7397565E2,9.039973E2,2.2400923E2,1.9605055E1,8.362928E1,3.8858917E2,5.2331665E2,4.9037013E0,1.2027065E3,2.2986119E2,8.273659E2,6.251829E3,6.4345825E3,2.649174E2,1.3959839E3,1.6046454E3,7.1610767E2,2.8746088E2,7.5512037E0,6.651925E2,5.0512444E1,2.7071362E2,9.112136E2,2.5372395E2,6.202517E2,4.8020474E2,4.2379257E2,1.6228514E2,6.1724094E1,1.1519877E1,8.085178E0,7.825784E1,5.371442E0,7.220564E1,3.1638354E2,2.5172453E2,2.715921E2,1.4062712E0,3.4974303E0,1.55938E2,1.0467686E3],"tree_param":{"num_deleted":"0","num_feature":"3","num_nodes":"63","size_leaf_vector":"1"}},{"base_weights":[-2.444082E-2,1.2219169E-1,-3.125375E-1,1.7514323E-1,-2.1582332E-1,-1.0958257E-2,-6.225741E-1,4.0493754E-1,1.06737345E-1,-1.3614976E-1,-4.1057E-1,8.4854044E-2,-3.8533184E-1,-4.3167835E-1,-1E0,4.903037E-4,4.8168546E-1,1.6105549E-1,-2.5539258E-1,6.09897E-1,-1.4810252E-1,-2.0675643E-1,-9.628882E-1,1.5473104E-1,-2.1580765E-1,-7.5657144E-2,-5.566495E-1,-3.3302823E-1,-8.559147E-1,-7.3565435E-1,-5E-2,1.677376E-2,-3.766253E-3,3.7020758E-2,2.0111343E-2,1.0647197E-2,2.0741664E-3,-6.4129294E-3,-1.9407833E-2,2.5759289E-2,4.8402525E-2,8.2707405E-3,-8.276243E-3,7.1362415E-3,-1.6140524E-2,-5E-2,-1.9139927E-2,1.015823E-2,-3.2991671E-4,2.4319222E-2,-3.1203916E-2,-1.5732519E-3,-5E-2,-2.0409033E-2,-5E-2,-1.1819146E-2,-3.150828E-2,-1.9678086E-2,-4.5597278E-2,-1.8407659E-3,-4.304347E-2],"categories":[],"categories_nodes":[],"categories_segments":[],"categories_sizes":[],"default_left":[0,0,0,0,0,0,0,0,0,0,0,0,0,0,0,0,0,0,0,0,0,0,0,0,0,0,0,0,0,0,0,0,0,0,0,0,0,0,0,0,0,0,0,0,0,0,0,0,0,0,0,0,0,0,0,0,0,0,0,0,0],"id":22,"left_children":[1,3,5,7,9,11,13,15,17,19,21,23,25,27,29,31,33,35,37,39,41,43,45,47,49,51,53,55,57,59,-1,-1,-1,-1,-1,-1,-1,-1,-1,-1,-1,-1,-1,-1,-1,-1,-1,-1,-1,-1,-1,-1,-1,-1,-1,-1,-1,-1,-1,-1,-1],"loss_changes":[1.00845105E3,2.8319238E2,7.5284753E2,2.1496533E2,3.3196533E1,1.4647469E2,3.557024E2,9.738367E1,2.0739856E2,1.366577E1,6.978719E1,6.834531E1,4.4104027E1,1.1921643E2,8.34021E0,1.2758969E1,5.3913086E1,5.686908E1,2.3164688E1,3.2221413E-1,8.216137E0,1.8516739E1,8.767715E0,2.0621136E1,1.7621112E2,1.5093143E1,4.4370667E1,6.642633E1,1.3580414E1,1.1664452E1,0E0,0E0,0E0,0E0,0E0,0E0,0E0,0E0,0E0,0E0,0E0,0E0,0E0,0E0,0E0,0E0,0E0,0E0,0E0,0E0,0E0,0E0,0E0,0E0,0E0,0E0,0E0,0E0,0E0,0E0,0E0],"parents":[2147483647,0,0,1,1,2,2,3,3,4,4,5,5,6,6,7,7,8,8,9,9,10,10,11,11,12,12,13,13,14,14,15,15,16,16,17,17,18,18,19,19,20,20,21,21,22,22,23,23,24,24,25,25,26,26,27,27,28,28,29,29],"right_children":[2,4,6,8,10,12,14,16,18,20,22,24,26,28,30,32,34,36,38,40,42,44,46,48,50,52,54,56,58,60,-1,-1,-1,-1,-1,-1,-1,-1,-1,-1,-1,-1,-1,-1,-1,-1,-1,-1,-1,-1,-1,-1,-1,-1,-1,-1,-1,-1,-1,-1,-1],"split_conditions":[5.8406415E0,1E0,4.1935482E1,5.078294E0,6.8181816E1,1E0,6.5191474E0,2.7777779E1,8.8888885E1,4.5968018E0,5.600272E0,6.8655434E0,1.4285714E1,1E0,4.8387096E1,1.3636364E1,4.644391E0,6.153846E1,5.453182E0,6.0869564E1,8.695652E0,5.078294E0,5.8021183E0,3.1578947E1,1E1,7.706313E0,6.738942E0,8.518519E1,5.8837867E0,6.605974E0,-5E-2,1.677376E-2,-3.766253E-3,3.7020758E-2,2.0111343E-2,1.0647197E-2,2.0741664E-3,-6.4129294E-3,-1.9407833E-2,2.5759289E-2,4.8402525E-2,8.2707405E-3,-8.276243E-3,7.1362415E-3,-1.6140524E-2,-5E-2,-1.9139927E-2,1.015823E-2,-3.2991671E-4,2.4319222E-2,-3.1203916E-2,-1.5732519E-3,-5E-2,-2.0409033E-2,-5E-2,-1.1819146E-2,-3.150828E-2,-1.9678086E-2,-4.5597278E-2,-1.8407659E-3,-4.304347E-2],"split_indices":[1,0,2,1,2,0,1,2,2,1,1,1,2,0,2,2,1,2,1,2,2,1,1,2,2,1,1,2,1,1,0,0,0,0,0,0,0,0,0,0,0,0,0,0,0,0,0,0,0,0,0,0,0,0,0,0,0,0,0,0,0],"split_type":[0,0,0,0,0,0,0,0,0,0,0,0,0,0,0,0,0,0,0,0,0,0,0,0,0,0,0,0,0,0,0,0,0,0,0,0,0,0,0,0,0,0,0,0,0,0,0,0,0,0,0,0,0,0,0,0,0,0,0,0,0],"sum_hessian":[2.3869959E4,1.5819094E4,8.0508657E3,1.3677012E4,2.1420823E3,4.081621E3,3.9692444E3,3.136321E3,1.054069E4,1.5213684E3,6.207138E2,3.2505032E3,8.311181E2,2.8544028E3,1.1148416E3,5.0038596E2,2.635935E3,9.16633E3,1.3743602E3,2.3201342E1,1.4981671E3,4.5440573E2,1.6630809E2,2.63791E3,6.125931E2,2.9653732E2,5.3458075E2,2.3173267E3,5.3707623E2,1.3266232E2,9.821792E2,9.171679E1,4.0866916E2,6.173682E2,2.0185668E3,6.3918154E3,2.774515E3,7.030706E2,6.712896E2,2.0277534E1,2.9238076E0,7.842388E1,1.4197432E3,1.1322223E2,3.411835E2,1.4106194E2,2.5246153E1,2.028626E3,6.0928406E2,2.251545E2,3.874386E2,2.8716058E2,9.376724E0,4.2910468E2,1.05476074E2,1.7499446E3,5.673821E2,5.89185E1,4.7815775E2,2.0354656E1,1.1230767E2],"tree_param":{"num_deleted":"0","num_feature":"3","num_nodes":"61","size_leaf_vector":"1"}},{"base_weights":[-2.0616155E-2,7.2036624E-2,-4.6784595E-1,2.3033851E-1,-4.8487704E-2,3.0140376E-2,-8.178727E-1,5.504182E-1,1.8793845E-1,5.985775E-2,-3.2134703E-1,1.22688435E-1,-3.328751E-1,-5.681379E-1,-1E0,1.0271484E-1,6.247413E-1,2.3802388E-1,-1.1608257E-1,1.1495046E-1,-1.9446938E-1,-2.543554E-1,-6.9257355E-1,1.96433E-1,-2.0338093E-1,-1.3276868E-1,-9.275329E-1,-3.2481343E-1,-8.083936E-1,-8.397812E-1,-5E-2,-2.7012033E-2,8.191646E-3,3.5067763E-2,1.9673347E-2,-3.0605919E-3,1.406969E-2,1.6317891E-3,-1.4193981E-2,7.983157E-3,-1.876936E-3,-7.2455513E-3,-2.4810543E-2,-7.6802582E-3,-2.387864E-2,-1.9063069E-2,-4.0821087E-2,1.673455E-2,5.0928155E-3,3.4284156E-2,-1.8635007E-2,1.1041706E-2,-2.2707341E-2,7.892851E-3,-5E-2,-9.122559E-3,-4.2779684E-2,-3.62283E-2,-5E-2,-5E-2,-1.3835216E-2],"categories":[],"categories_nodes":[],"categories_segments":[],"categories_sizes":[],"default_left":[0,0,0,0,0,0,0,0,0,0,0,0,0,0,0,0,0,0,0,0,0,0,0,0,0,0,0,0,0,0,0,0,0,0,0,0,0,0,0,0,0,0,0,0,0,0,0,0,0,0,0,0,0,0,0,0,0,0,0,0,0],"id":23,"left_children":[1,3,5,7,9,11,13,15,17,19,21,23,25,27,29,31,33,35,37,39,41,43,45,47,49,51,53,55,57,59,-1,-1,-1,-1,-1,-1,-1,-1,-1,-1,-1,-1,-1,-1,-1,-1,-1,-1,-1,-1,-1,-1,-1,-1,-1,-1,-1,-1,-1,-1,-1],"loss_changes":[9.905967E2,3.7784787E2,7.151544E2,1.1607303E2,3.3243164E2,5.6966053E1,1.6696924E2,3.3237366E1,1.1515268E2,1.1280456E2,7.930441E1,3.2523487E1,4.0868782E1,7.743747E1,2.7868652E0,5.734828E0,1.4929016E1,8.426309E1,2.6711895E1,4.5119743E1,2.1365097E1,6.084912E1,1.8503647E1,1.4378769E1,3.7838444E1,2.9523695E1,1.9237701E1,4.9867455E1,1.4995392E1,1.7522552E1,0E0,0E0,0E0,0E0,0E0,0E0,0E0,0E0,0E0,0E0,0E0,0E0,0E0,0E0,0E0,0E0,0E0,0E0,0E0,0E0,0E0,0E0,0E0,0E0,0E0,0E0,0E0,0E0,0E0,0E0,0E0],"parents":[2147483647,0,0,1,1,2,2,3,3,4,4,5,5,6,6,7,7,8,8,9,9,10,10,11,11,12,12,13,13,14,14,15,15,16,16,17,17,18,18,19,19,20,20,21,21,22,22,23,23,24,24,25,25,26,26,27,27,28,28,29,29],"right_children":[2,4,6,8,10,12,14,16,18,20,22,24,26,28,30,32,34,36,38,40,42,44,46,48,50,52,54,56,58,60,-1,-1,-1,-1,-1,-1,-1,-1,-1,-1,-1,-1,-1,-1,-1,-1,-1,-1,-1,-1,-1,-1,-1,-1,-1,-1,-1,-1,-1,-1,-1],"split_conditions":[6.2232375E0,5.416841E0,3E1,4.7140245E0,6.8181816E1,1E0,6.6802273E0,2.631579E1,8.823529E1,1E0,1E0,7.1733193E0,7.0023074E0,6.0869564E1,6.7749853E0,4.337291E0,9.387755E1,1.7272728E1,5.194807E0,5.2173912E1,5.56962E1,9.1304344E1,5.600272E0,6.4307942E0,3.3333333E0,1.3636364E1,3.3333333E0,1E0,6.5191474E0,6.756157E0,-5E-2,-2.7012033E-2,8.191646E-3,3.5067763E-2,1.9673347E-2,-3.0605919E-3,1.406969E-2,1.6317891E-3,-1.4193981E-2,7.983157E-3,-1.876936E-3,-7.2455513E-3,-2.4810543E-2,-7.6802582E-3,-2.387864E-2,-1.9063069E-2,-4.0821087E-2,1.673455E-2,5.0928155E-3,3.4284156E-2,-1.8635007E-2,1.1041706E-2,-2.2707341E-2,7.892851E-3,-5E-2,-9.122559E-3,-4.2779684E-2,-3.62283E-2,-5E-2,-5E-2,-1.3835216E-2],"split_indices":[1,1,2,1,2,0,1,2,2,0,0,1,1,2,1,1,2,2,1,2,2,2,1,1,2,2,2,0,1,1,0,0,0,0,0,0,0,0,0,0,0,0,0,0,0,0,0,0,0,0,0,0,0,0,0,0,0,0,0,0,0],"split_type":[0,0,0,0,0,0,0,0,0,0,0,0,0,0,0,0,0,0,0,0,0,0,0,0,0,0,0,0,0,0,0,0,0,0,0,0,0,0,0,0,0,0,0,0,0,0,0,0,0,0,0,0,0,0,0,0,0,0,0,0,0],"sum_hessian":[2.390423E4,1.9802562E4,4.1016665E3,8.559385E3,1.1243179E4,1.6933853E3,2.4082812E3,9.998088E2,7.5595757E3,8.048218E3,3.1949607E3,1.3499004E3,3.434849E2,1.3281124E3,1.0801687E3,1.426861E2,8.571227E2,6.490523E3,1.069053E3,6.61567E3,1.4325481E3,2.7079656E3,4.8699506E2,1.1012393E3,2.486611E2,2.5791724E2,8.556765E1,6.610108E2,6.671017E2,1.46521E2,9.336477E2,1.17055645E1,1.3098053E2,6.423123E2,2.1481041E2,8.215731E2,5.6689497E3,5.6717334E2,5.0187967E2,5.115626E3,1.500044E3,1.231728E3,2.0082014E2,1.8669824E3,8.4098315E2,1.3976128E2,3.4723376E2,4.4628848E2,6.5495074E2,3.9292698E1,2.093684E2,1.2295088E2,1.3496635E2,1.4434729E1,7.113292E1,5.2227386E2,1.3873698E2,5.3315967E2,1.33942E2,1.0487714E2,4.1643864E1],"tree_param":{"num_deleted":"0","num_feature":"3","num_nodes":"61","size_leaf_vector":"1"}},{"base_weights":[-2.1924354E-2,7.799588E-2,-4.46267E-1,1.3171883E-1,-2.3676708E-1,1.1939562E-2,-7.1570903E-1,4.327435E-1,9.401599E-2,-1.5511383E-1,-5.955451E-1,7.036951E-2,-6.9550055E-1,-4.4500798E-1,-9.940903E-1,1.035181E-1,5.342097E-1,1.6794439E-1,-1.1325975E-1,-4.3901008E-2,-3.0245546E-1,-2.874642E-1,-8.6893445E-1,1.5376613E-1,-1.19824685E-1,-1.1577764E-1,-1E0,-3.40287E-1,-8.5450065E-1,-7.60155E-1,-5E-2,8.044201E-3,-6.3926964E-3,3.255598E-2,1.830819E-2,1.8485114E-3,1.0368952E-2,3.4903758E-3,-1.391265E-2,7.466589E-3,-5.615817E-3,-2.3034208E-3,-2.6042152E-2,-4.5551667E-3,-2.7012277E-2,-3.7707783E-2,-5E-2,1.0162325E-2,-1.2131917E-3,1.4705199E-3,-3.537754E-2,1.107257E-2,-2.2225052E-2,-5E-2,-3.721292E-2,-1.116953E-2,-3.3112656E-2,-4.9034264E-2,-2.5784215E-2,-2.0092007E-2,-4.7029737E-2],"categories":[],"categories_nodes":[],"categories_segments":[],"categories_sizes":[],"default_left":[0,0,0,0,0,0,0,0,0,0,0,0,0,0,0,0,0,0,0,0,0,0,0,0,0,0,0,0,0,0,0,0,0,0,0,0,0,0,0,0,0,0,0,0,0,0,0,0,0,0,0,0,0,0,0,0,0,0,0,0,0],"id":24,"left_children":[1,3,5,7,9,11,13,15,17,19,21,23,25,27,29,31,33,35,37,39,41,43,45,47,49,51,53,55,57,59,-1,-1,-1,-1,-1,-1,-1,-1,-1,-1,-1,-1,-1,-1,-1,-1,-1,-1,-1,-1,-1,-1,-1,-1,-1,-1,-1,-1,-1,-1,-1],"loss_changes":[1.00968915E3,3.2596744E2,5.603437E2,1.8683163E2,8.224231E1,6.9558426E1,2.1493152E2,6.115747E1,2.2426173E2,3.7524452E1,4.3606476E1,2.4670471E1,2.4464058E1,6.1923218E1,3.1136108E1,5.76693E0,2.7275818E1,5.570639E1,1.1624251E2,1.7290428E1,5.513794E1,1.2176718E1,5.423294E0,9.526419E0,4.162289E1,5.3966556E0,1.2098923E0,4.339781E1,1.2097916E1,3.5795776E1,0E0,0E0,0E0,0E0,0E0,0E0,0E0,0E0,0E0,0E0,0E0,0E0,0E0,0E0,0E0,0E0,0E0,0E0,0E0,0E0,0E0,0E0,0E0,0E0,0E0,0E0,0E0,0E0,0E0,0E0,0E0],"parents":[2147483647,0,0,1,1,2,2,3,3,4,4,5,5,6,6,7,7,8,8,9,9,10,10,11,11,12,12,13,13,14,14,15,15,16,16,17,17,18,18,19,19,20,20,21,21,22,22,23,23,24,24,25,25,26,26,27,27,28,28,29,29],"right_children":[2,4,6,8,10,12,14,16,18,20,22,24,26,28,30,32,34,36,38,40,42,44,46,48,50,52,54,56,58,60,-1,-1,-1,-1,-1,-1,-1,-1,-1,-1,-1,-1,-1,-1,-1,-1,-1,-1,-1,-1,-1,-1,-1,-1,-1,-1,-1,-1,-1,-1,-1],"split_conditions":[6.1330366E0,1E0,2.6666666E1,4.910201E0,7.9245285E1,7.5310163E0,6.5191474E0,3.888889E1,7.3333336E1,5.6401324E0,5.4834127E0,1.7857143E1,7.6923075E0,1E0,5.2941177E1,4.8507276E0,7.9245285E1,2.0454546E1,5.441696E0,5.166689E0,2.9411764E1,9.1304344E1,5.871178E0,1E0,6.8655434E0,3.3333333E0,1.875E1,7.826087E1,6.3999805E0,6.7749853E0,-5E-2,8.044201E-3,-6.3926964E-3,3.255598E-2,1.830819E-2,1.8485114E-3,1.0368952E-2,3.4903758E-3,-1.391265E-2,7.466589E-3,-5.615817E-3,-2.3034208E-3,-2.6042152E-2,-4.5551667E-3,-2.7012277E-2,-3.7707783E-2,-5E-2,1.0162325E-2,-1.2131917E-3,1.4705199E-3,-3.537754E-2,1.107257E-2,-2.2225052E-2,-5E-2,-3.721292E-2,-1.116953E-2,-3.3112656E-2,-4.9034264E-2,-2.5784215E-2,-2.0092007E-2,-4.7029737E-2],"split_indices":[1,0,2,1,2,1,1,2,2,1,1,2,2,0,2,1,2,2,1,1,2,2,1,0,1,2,2,2,1,1,0,0,0,0,0,0,0,0,0,0,0,0,0,0,0,0,0,0,0,0,0,0,0,0,0,0,0,0,0,0,0],"split_type":[0,0,0,0,0,0,0,0,0,0,0,0,0,0,0,0,0,0,0,0,0,0,0,0,0,0,0,0,0,0,0,0,0,0,0,0,0,0,0,0,0,0,0,0,0,0,0,0,0,0,0,0,0,0,0,0,0,0,0,0,0],"sum_hessian":[2.3811367E4,1.9273775E4,4.537592E3,1.6464275E4,2.809499E3,1.6805852E3,2.8570066E3,1.8314271E3,1.4632849E4,2.289802E3,5.196971E2,1.5532014E3,1.27383804E2,1.4498019E3,1.4072048E3,4.3194028E2,1.3994868E3,1.0786021E4,3.846827E3,1.3056221E3,9.841799E2,2.4531004E2,2.7438705E2,1.079884E3,4.7331744E2,4.6794106E1,8.05897E1,1.1560039E3,2.937979E2,5.584956E2,8.487092E2,3.463673E2,8.557297E1,8.2361914E2,5.758677E2,2.4964631E3,8.289559E3,1.8238083E3,2.0230186E3,3.410827E2,9.645393E2,4.5326163E2,5.309183E2,1.388284E2,1.0648164E2,1.8354721E2,9.0839836E1,8.4491327E2,2.3497073E2,3.7822797E2,9.508948E1,2.3259302E1,2.3534801E1,4.780132E1,3.278838E1,8.493309E2,3.066731E2,2.126913E2,8.1106606E1,1.8813217E2,3.7036343E2],"tree_param":{"num_deleted":"0","num_feature":"3","num_nodes":"61","size_leaf_vector":"1"}},{"base_weights":[-1.8178198E-2,7.71118E-2,-4.0566635E-1,1.2527066E-1,-2.0841394E-1,2.2972155E-2,-6.9937193E-1,4.2764843E-1,8.732664E-2,-8.075071E-2,-3.8583446E-1,9.908705E-2,-2.783266E-1,-4.903347E-1,-1E0,7.8439996E-2,5.313447E-1,1.2531285E-1,-2.9474646E-1,3.350892E-1,-1.01416074E-1,-1.8807907E-2,-5.0290304E-1,1.3306609E-1,-4.1369405E-1,-6.357004E-3,-6.421224E-1,-3.9184743E-1,-8.7633216E-1,-7.949039E-1,-1E0,1.2019219E-2,-4.5417115E-4,3.1589333E-2,1.3882152E-2,9.758695E-3,2.221207E-3,-4.353221E-3,-1.8719833E-2,4.144576E-2,8.064962E-3,2.4352599E-2,-5.4774485E-3,8.414294E-3,-1.1172056E-2,-1.876158E-2,-3.1184305E-2,1.5432357E-2,2.6305977E-3,-2.95139E-2,5E-2,9.888842E-3,-1.9409372E-2,4.3648362E-2,-3.67047E-2,-7.4506286E-3,-2.7828017E-2,-4.971281E-2,-3.396816E-2,-4.8938043E-2,-1.43694E-2,-5E-2,-4.2721696E-2],"categories":[],"categories_nodes":[],"categories_segments":[],"categories_sizes":[],"default_left":[0,0,0,0,0,0,0,0,0,0,0,0,0,0,0,0,0,0,0,0,0,0,0,0,0,0,0,0,0,0,0,0,0,0,0,0,0,0,0,0,0,0,0,0,0,0,0,0,0,0,0,0,0,0,0,0,0,0,0,0,0,0,0],"id":25,"left_children":[1,3,5,7,9,11,13,15,17,19,21,23,25,27,29,31,33,35,37,39,41,43,45,47,49,51,53,55,57,59,61,-1,-1,-1,-1,-1,-1,-1,-1,-1,-1,-1,-1,-1,-1,-1,-1,-1,-1,-1,-1,-1,-1,-1,-1,-1,-1,-1,-1,-1,-1,-1,-1],"loss_changes":[8.7540576E2,2.616875E2,5.8913916E2,1.8678853E2,6.2182686E1,4.3685062E1,2.0015466E2,6.5691376E1,2.1003442E2,1.3771721E1,4.936499E1,2.654768E1,3.8007736E1,6.5824646E1,4.9483643E0,5.909725E0,3.5486084E1,7.436577E1,2.16166E1,6.3815203E0,7.3457375E0,1.0716586E1,1.3200119E1,2.0138329E1,2.4305307E1,1.7290613E1,2.3540558E1,5.5455368E1,7.5240784E0,1.2913704E1,1.6699219E0,0E0,0E0,0E0,0E0,0E0,0E0,0E0,0E0,0E0,0E0,0E0,0E0,0E0,0E0,0E0,0E0,0E0,0E0,0E0,0E0,0E0,0E0,0E0,0E0,0E0,0E0,0E0,0E0,0E0,0E0,0E0,0E0],"parents":[2147483647,0,0,1,1,2,2,3,3,4,4,5,5,6,6,7,7,8,8,9,9,10,10,11,11,12,12,13,13,14,14,15,15,16,16,17,17,18,18,19,19,20,20,21,21,22,22,23,23,24,24,25,25,26,26,27,27,28,28,29,29,30,30],"right_children":[2,4,6,8,10,12,14,16,18,20,22,24,26,28,30,32,34,36,38,40,42,44,46,48,50,52,54,56,58,60,62,-1,-1,-1,-1,-1,-1,-1,-1,-1,-1,-1,-1,-1,-1,-1,-1,-1,-1,-1,-1,-1,-1,-1,-1,-1,-1,-1,-1,-1,-1,-1,-1],"split_conditions":[6.115156E0,1E0,2.9411764E1,4.910201E0,5.2173912E1,1E0,6.6802273E0,3.8095238E1,9.1860466E1,7.142857E0,5.250527E0,7.5687237E0,1.5384615E1,1E0,6.7749853E0,4.644391E0,8.461539E1,5.5542507E0,5.236442E0,5.7662354E0,4.5968018E0,7.55102E1,5.6401324E0,9.090909E0,2.7272728E1,6.738942E0,6.1330366E0,5.2173912E1,6.3999805E0,6.756157E0,7.8664026E0,1.2019219E-2,-4.5417115E-4,3.1589333E-2,1.3882152E-2,9.758695E-3,2.221207E-3,-4.353221E-3,-1.8719833E-2,4.144576E-2,8.064962E-3,2.4352599E-2,-5.4774485E-3,8.414294E-3,-1.1172056E-2,-1.876158E-2,-3.1184305E-2,1.5432357E-2,2.6305977E-3,-2.95139E-2,5E-2,9.888842E-3,-1.9409372E-2,4.3648362E-2,-3.67047E-2,-7.4506286E-3,-2.7828017E-2,-4.971281E-2,-3.396816E-2,-4.8938043E-2,-1.43694E-2,-5E-2,-4.2721696E-2],"split_indices":[1,0,2,1,2,0,1,2,2,2,1,1,2,0,1,1,2,1,1,1,1,2,1,2,2,1,1,2,1,1,1,0,0,0,0,0,0,0,0,0,0,0,0,0,0,0,0,0,0,0,0,0,0,0,0,0,0,0,0,0,0,0,0],"split_type":[0,0,0,0,0,0,0,0,0,0,0,0,0,0,0,0,0,0,0,0,0,0,0,0,0,0,0,0,0,0,0,0,0,0,0,0,0,0,0,0,0,0,0,0,0,0,0,0,0,0,0,0,0,0,0,0,0,0,0,0,0,0,0],"sum_hessian":[2.3706629E4,1.9028094E4,4.6785347E3,1.6282354E4,2.7457397E3,1.9026702E3,2.7758645E3,1.8142488E3,1.4468105E4,1.5976227E3,1.1481171E3,1.5194849E3,3.831852E2,1.7395387E3,1.0363259E3,4.1578937E2,1.3984595E3,1.3160357E4,1.307748E3,7.491556E1,1.5227072E3,2.779295E2,8.7018756E2,1.4257493E3,9.3735634E1,2.1984734E2,1.6333789E2,1.3875265E3,3.5201218E2,1.4040982E2,8.95916E2,1.4526303E2,2.7052634E2,1.0007617E3,3.9769772E2,7.060775E3,6.099582E3,3.630957E2,9.4465234E2,1.8520298E1,5.6395256E1,1.9954857E1,1.5027523E3,1.4527965E2,1.3264986E2,4.2502725E2,4.4516034E2,4.4712308E2,9.786262E2,8.3870995E1,9.864639E0,1.4357266E2,7.6274666E1,8.861803E0,1.5447609E2,5.6154706E2,8.2597943E2,2.1765552E2,1.3435667E2,1.02389E2,3.8020832E1,7.7091064E2,1.2500539E2],"tree_param":{"num_deleted":"0","num_feature":"3","num_nodes":"63","size_leaf_vector":"1"}},{"base_weights":[-1.972592E-2,3.849651E-2,-5.804722E-1,9.599196E-2,-2.9155022E-1,-1.1935441E-2,-9.677339E-1,1.3780485E-1,-2.1150428E-1,-1.8945387E-1,-5.647242E-1,7.7417016E-2,-6.892446E-1,-6.661705E-1,-1E0,4.6958187E-1,1.0425524E-1,1.3215595E-1,-3.812985E-1,-4.1150916E-2,-3.6124405E-1,-3.1894916E-1,-8.0423105E-1,3.4880808E-1,-1.3119043E-1,-2.6999235E-1,-9.081263E-1,-3.2243058E-1,-9.597167E-1,-8.1720936E-1,-5E-2,6.6125393E-3,2.750248E-2,7.461268E-3,-1.2150054E-3,3.6390472E-2,2.8510008E-3,-1.73757E-2,-4.470047E-2,9.201025E-3,-5.806049E-3,-7.343517E-3,-3.1432446E-2,-1.6127175E-3,-2.1557719E-2,-3.0316526E-2,-4.6370275E-2,2.1370765E-2,-1.9925197E-3,